{"learner":{"attributes":{},"feature_names":["similarity","city_match","segment_match_score","genre_match_score","date_match","price_score"],"feature_types":["float","int","int","int","int","float"],"gradient_booster":{"model":{"gbtree_model_param":{"num_parallel_tree":"1","num_trees":"200"},"iteration_indptr":[0,1,2,3,4,5,6,7,8,9,10,11,12,13,14,15,16,17,18,19,20,21,22,23,24,25,26,27,28,29,30,31,32,33,34,35,36,37,38,39,40,41,42,43,44,45,46,47,48,49,50,51,52,53,54,55,56,57,58,59,60,61,62,63,64,65,66,67,68,69,70,71,72,73,74,75,76,77,78,79,80,81,82,83,84,85,86,87,88,89,90,91,92,93,94,95,96,97,98,99,100,101,102,103,104,105,106,107,108,109,110,111,112,113,114,115,116,117,118,119,120,121,122,123,124,125,126,127,128,129,130,131,132,133,134,135,136,137,138,139,140,141,142,143,144,145,146,147,148,149,150,151,152,153,154,155,156,157,158,159,160,161,162,163,164,165,166,167,168,169,170,171,172,173,174,175,176,177,178,179,180,181,182,183,184,185,186,187,188,189,190,191,192,193,194,195,196,197,198,199,200],"tree_info":[0,0,0,0,0,0,0,0,0,0,0,0,0,0,0,0,0,0,0,0,0,0,0,0,0,0,0,0,0,0,0,0,0,0,0,0,0,0,0,0,0,0,0,0,0,0,0,0,0,0,0,0,0,0,0,0,0,0,0,0,0,0,0,0,0,0,0,0,0,0,0,0,0,0,0,0,0,0,0,0,0,0,0,0,0,0,0,0,0,0,0,0,0,0,0,0,0,0,0,0,0,0,0,0,0,0,0,0,0,0,0,0,0,0,0,0,0,0,0,0,0,0,0,0,0,0,0,0,0,0,0,0,0,0,0,0,0,0,0,0,0,0,0,0,0,0,0,0,0,0,0,0,0,0,0,0,0,0,0,0,0,0,0,0,0,0,0,0,0,0,0,0,0,0,0,0,0,0,0,0,0,0,0,0,0,0,0,0,0,0,0,0,0,0,0,0,0,0,0,0],"trees":[{"base_weights":[1.1206929E-2,-4.1186416E-1,5.733142E-1,-6.325969E-1,4.9717703E-1,-6.025705E-3,6.0185474E-1,-9.205138E-2,-3.4294796E-1,6.436469E-2,5.0760712E-2,4.710553E-1,7.694134E-2,-9.567926E-2,-7.127507E-1,-5.3218037E-2,5.590005E-2,5.939362E-1,-6.0599692E-2,1.9253185E-2,-5.47416E-2,-8.0360055E-2,-1.0999727E-2,8.2660325E-2,4.4957605E-1,-2.1614006E-2,6.0174894E-2,-4.815447E-2,5.5473864E-2],"categories":[],"categories_nodes":[],"categories_segments":[],"categories_sizes":[],"default_left":[0,0,0,0,0,0,0,0,0,0,0,0,0,0,0,0,0,0,0,0,0,0,0,0,0,0,0,0,0],"id":0,"left_children":[1,3,5,7,9,-1,11,-1,13,-1,15,17,-1,19,21,-1,-1,23,-1,25,-1,-1,-1,-1,27,-1,-1,-1,-1],"loss_changes":[1.9556906E1,9.732651E0,6.747074E-1,2.8705406E0,6.035626E-1,0E0,3.8001728E-1,0E0,1.8191183E0,0E0,1.3313243E0,3.219173E0,0E0,7.127049E-1,3.5601568E-1,0E0,0E0,2.9665995E-1,0E0,1.7407897E0,0E0,0E0,0E0,0E0,1.6840928E0,0E0,0E0,0E0,0E0],"parents":[2147483647,0,0,1,1,2,2,3,3,4,4,6,6,8,8,10,10,11,11,13,13,14,14,17,17,19,19,24,24],"right_children":[2,4,6,8,10,-1,12,-1,14,-1,16,18,-1,20,22,-1,-1,24,-1,26,-1,-1,-1,-1,28,-1,-1,-1,-1],"split_conditions":[1E0,3.8876316E-1,1.564073E-2,1.9502282E-1,4.2783013E-1,-6.025705E-3,2.4579668E-1,-9.205138E-2,5E-1,6.436469E-2,4.729023E-1,2.3209533E-1,7.694134E-2,3.3027446E-1,3.7615526E-1,-5.3218037E-2,5.590005E-2,1.027333E-1,-6.0599692E-2,2.872278E-1,-5.47416E-2,-8.0360055E-2,-1.0999727E-2,8.2660325E-2,1.1228898E-1,-2.1614006E-2,6.0174894E-2,-4.815447E-2,5.5473864E-2],"split_indices":[2,0,0,0,0,0,0,0,5,0,0,0,0,0,0,0,0,0,0,0,0,0,0,0,0,0,0,0,0],"split_type":[0,0,0,0,0,0,0,0,0,0,0,0,0,0,0,0,0,0,0,0,0,0,0,0,0,0,0,0,0],"sum_hessian":[8.024415E1,4.5936924E1,3.4307228E1,3.720656E1,8.730366E0,1.4309239E0,3.2876305E1,1.7566788E1,1.963977E1,6.240907E0,2.4894583E0,2.0603842E1,1.2272462E1,1.2524194E1,7.115576E0,1.137576E0,1.3518823E0,1.8896496E1,1.7073472E0,1.0747227E1,1.7769678E0,5.893989E0,1.2215866E0,5.425755E0,1.347074E1,8.10204E0,2.6451867E0,1.0038142E0,1.2466926E1],"tree_param":{"num_deleted":"0","num_feature":"6","num_nodes":"29","size_leaf_vector":"1"}},{"base_weights":[-8.219132E-3,-2.8655124E-1,2.8324065E-1,-7.296899E-1,6.0099114E-2,1.603155E-1,8.796629E-2,-8.7422445E-2,-4.5597112E-1,2.8434867E-1,-4.7929034E-1,2.5718415E-1,-8.099026E-2,-6.444244E-2,-5.9183348E-2,1.5590825E-2,4.724578E-1,5.151047E-2,-8.771528E-2,8.389839E-2,5.351626E-1,-1.7496051E-2,5.038611E-3,3.022442E-1,-7.361618E-2,7.661301E-2,2.6980603E-1,3.1444037E-1,-5.5798627E-2,1.8833207E-1,-7.723131E-2,6.154033E-1,-7.782646E-2,-9.866969E-3,5.4718852E-2,-1.04521E-2,7.493797E-2,-1.1735892E-5,5.4847687E-2,3.4806454E-3,8.031401E-2,3.9685283E-2,7.621717E-2,-4.8079718E-2,4.033373E-2],"categories":[],"categories_nodes":[],"categories_segments":[],"categories_sizes":[],"default_left":[0,0,0,0,0,0,0,0,0,0,0,0,0,0,0,0,0,0,0,0,0,0,0,0,0,0,0,0,0,0,0,0,0,0,0,0,0,0,0,0,0,0,0,0,0],"id":1,"left_children":[1,3,5,7,9,11,-1,-1,13,15,17,19,-1,21,-1,23,25,27,-1,29,31,-1,-1,33,-1,-1,35,37,-1,39,-1,41,43,-1,-1,-1,-1,-1,-1,-1,-1,-1,-1,-1,-1],"loss_changes":[1.3158325E1,1.2786966E1,5.669003E0,1.0448494E0,5.878019E0,6.4984264E0,0E0,0E0,7.4374294E-1,1.7194605E0,3.0676787E0,2.9228969E0,0E0,7.111073E-2,0E0,3.4759555E0,9.870739E-1,1.3094432E0,0E0,3.6451032E0,1.2024455E0,0E0,0E0,1.1969535E0,0E0,0E0,2.4860954E0,4.110843E-1,0E0,3.34055E0,0E0,3.6690283E-1,8.92855E-1,0E0,0E0,0E0,0E0,0E0,0E0,0E0,0E0,0E0,0E0,0E0,0E0],"parents":[2147483647,0,0,1,1,2,2,3,3,4,4,5,5,8,8,9,9,10,10,11,11,13,13,15,15,16,16,17,17,19,19,20,20,23,23,26,26,27,27,29,29,31,31,32,32],"right_children":[2,4,6,8,10,12,-1,-1,14,16,18,20,-1,22,-1,24,26,28,-1,30,32,-1,-1,34,-1,-1,36,38,-1,40,-1,42,44,-1,-1,-1,-1,-1,-1,-1,-1,-1,-1,-1,-1],"split_conditions":[1E0,2.6025778E-1,3.86262E-1,1.9502282E-1,5E-1,3.3027446E-1,8.796629E-2,-8.7422445E-2,2.1196763E-1,3.8876316E-1,3.817836E-1,1.7247356E-1,-8.099026E-2,1.995428E-1,-5.9183348E-2,3.3027446E-1,3.9773628E-1,1E0,-8.771528E-2,1.704594E-1,2.9098013E-1,-1.7496051E-2,5.038611E-3,2.8880796E-1,-7.361618E-2,7.661301E-2,4.729023E-1,3.7615526E-1,-5.5798627E-2,1.6104683E-1,-7.723131E-2,2.4579668E-1,3.0317205E-1,-9.866969E-3,5.4718852E-2,-1.04521E-2,7.493797E-2,-1.1735892E-5,5.4847687E-2,3.4806454E-3,8.031401E-2,3.9685283E-2,7.621717E-2,-4.8079718E-2,4.033373E-2],"split_indices":[2,0,0,0,5,0,0,0,0,0,0,0,0,0,0,0,0,5,0,0,0,0,0,0,0,0,0,0,0,0,0,0,0,0,0,0,0,0,0,0,0,0,0,0,0],"split_type":[0,0,0,0,0,0,0,0,0,0,0,0,0,0,0,0,0,0,0,0,0,0,0,0,0,0,0,0,0,0,0,0,0,0,0,0,0,0,0,0,0,0,0,0,0],"sum_hessian":[1.6020242E2,8.1955315E1,7.8247116E1,3.548644E1,4.6468876E1,6.592789E1,1.2319222E1,2.1787748E1,1.3698689E1,3.315685E1,1.3312028E1,6.0611256E1,5.316635E0,3.908752E0,9.789938E0,1.4097772E1,1.9059078E1,6.0761623E0,7.235866E0,3.8138412E1,2.2472843E1,1.7249177E0,2.1838343E0,1.0638946E1,3.4588258E0,6.6466203E0,1.2412457E1,4.5831447E0,1.4930176E0,3.468755E1,3.4508631E0,1.986815E1,2.6046927E0,4.2613444E0,6.3776016E0,7.410394E0,5.0020633E0,2.3816185E0,2.201526E0,2.8601894E1,6.085654E0,9.470184E0,1.0397965E1,1.4179406E0,1.186752E0],"tree_param":{"num_deleted":"0","num_feature":"6","num_nodes":"45","size_leaf_vector":"1"}},{"base_weights":[-2.0401143E-2,-3.5803616E-1,6.667138E-1,-8.660678E-2,-9.630229E-2,7.930112E-1,-7.646953E-2,-2.7533036E-1,2.3877105E-1,8.113775E-1,7.899298E-3,4.46347E-1,-4.0443093E-1,3.589843E-1,-6.51394E-2,4.7970152E-1,8.393225E-2,1.3835968E-2,4.8989747E-2,-7.5573586E-2,-2.269506E-1,5.40269E-1,1.0781733E-1,7.2091505E-2,-2.6952928E-2,4.0353987E-2,-3.4998067E-2,3.8560435E-2,7.2227E-2,-7.1189426E-2,5.045967E-2],"categories":[],"categories_nodes":[],"categories_segments":[],"categories_sizes":[],"default_left":[0,0,0,0,0,0,0,0,0,0,0,0,0,0,0,0,0,0,0,0,0,0,0,0,0,0,0,0,0,0,0],"id":2,"left_children":[1,3,5,-1,7,9,-1,11,13,15,-1,17,19,21,-1,23,-1,-1,-1,-1,25,27,29,-1,-1,-1,-1,-1,-1,-1,-1],"loss_changes":[3.4265095E1,1.3079893E1,9.405861E0,0E0,4.0525236E0,5.2890015E-1,0E0,4.259534E0,2.767755E0,4.9819946E-3,0E0,2.7702928E-2,2.1767015E0,9.210079E-1,0E0,1.23369E0,0E0,0E0,0E0,0E0,2.1929703E0,6.608319E-2,3.6978455E0,0E0,0E0,0E0,0E0,0E0,0E0,0E0,0E0],"parents":[2147483647,0,0,1,1,2,2,4,4,5,5,7,7,8,8,9,9,11,11,12,12,13,13,15,15,20,20,21,21,22,22],"right_children":[2,4,6,-1,8,10,-1,12,14,16,-1,18,20,22,-1,24,-1,-1,-1,-1,26,28,30,-1,-1,-1,-1,-1,-1,-1,-1],"split_conditions":[1E0,1.995428E-1,2E0,-8.660678E-2,3.8876316E-1,1E0,-7.646953E-2,2.105961E-1,5E-1,7.999115E-2,7.899298E-3,2.054695E-1,2.6025778E-1,4.2783013E-1,-6.51394E-2,2.2233797E-2,8.393225E-2,1.3835968E-2,4.8989747E-2,-7.5573586E-2,2.7934256E-1,4.122188E-1,4.729023E-1,7.2091505E-2,-2.6952928E-2,4.0353987E-2,-3.4998067E-2,3.8560435E-2,7.2227E-2,-7.1189426E-2,5.045967E-2],"split_indices":[3,0,3,0,0,5,0,0,5,0,0,0,0,0,0,0,0,0,0,0,0,0,0,0,0,0,0,0,0,0,0],"split_type":[0,0,0,0,0,0,0,0,0,0,0,0,0,0,0,0,0,0,0,0,0,0,0,0,0,0,0,0,0,0,0],"sum_hessian":[1.4566924E2,9.79952E1,4.7674026E1,3.2535015E1,6.546019E1,4.4218494E1,3.4555347E0,4.2780872E1,2.2679316E1,4.297667E1,1.2418237E0,6.118856E0,3.6662018E1,2.0506691E1,2.1726255E0,4.7511935E0,3.8225475E1,1.2755077E0,4.8433485E0,1.1211603E1,2.5450413E1,1.1241722E1,9.264969E0,3.6226733E0,1.1285201E0,3.783116E0,2.1667297E1,7.7632217E0,3.4785E0,2.7628925E0,6.5020766E0],"tree_param":{"num_deleted":"0","num_feature":"6","num_nodes":"31","size_leaf_vector":"1"}},{"base_weights":[-2.3905419E-2,-2.7107936E-1,3.7292957E-1,-5.9637105E-1,1.4181101E-1,2.278575E-1,7.799642E-2,-7.8890584E-2,-3.296208E-1,2.0879617E-1,-6.0878135E-2,-5.5743225E-2,2.7501956E-1,1.10947356E-1,-5.625204E-1,4.4285998E-1,1.2315256E-1,3.2410353E-1,-5.4190148E-2,-1.3427219E-1,5.8035042E-2,-6.747507E-2,-3.0733E-1,5.069085E-2,5.9541664E-3,-6.763057E-2,2.8824487E-1,6.928634E-2,2.2272505E-1,-3.3471625E-2,1.5541404E-3,3.4066269E-3,-6.384116E-2,4.531568E-2,3.4970418E-3,-6.82954E-2,3.5319235E-2],"categories":[],"categories_nodes":[],"categories_segments":[],"categories_sizes":[],"default_left":[0,0,0,0,0,0,0,0,0,0,0,0,0,0,0,0,0,0,0,0,0,0,0,0,0,0,0,0,0,0,0,0,0,0,0,0,0],"id":3,"left_children":[1,3,5,7,9,11,-1,-1,13,15,-1,-1,17,19,21,23,25,27,-1,29,-1,-1,31,-1,-1,-1,33,-1,35,-1,-1,-1,-1,-1,-1,-1,-1],"loss_changes":[1.3843965E1,1.1757878E1,3.0224786E0,2.2465553E0,2.0933852E0,1.6853907E0,0E0,0E0,2.3379793E0,6.8011093E-1,0E0,0E0,1.7672553E0,1.0568666E0,2.1285439E-1,2.0138574E-1,3.9190087E0,1.2688861E0,0E0,1.9734159E-1,0E0,0E0,7.3590314E-1,0E0,0E0,0E0,9.90247E-1,0E0,3.9437053E0,0E0,0E0,0E0,0E0,0E0,0E0,0E0,0E0],"parents":[2147483647,0,0,1,1,2,2,3,3,4,4,5,5,8,8,9,9,12,12,13,13,14,14,15,15,16,16,17,17,19,19,22,22,26,26,28,28],"right_children":[2,4,6,8,10,12,-1,-1,14,16,-1,-1,18,20,22,24,26,28,-1,30,-1,-1,32,-1,-1,-1,34,-1,36,-1,-1,-1,-1,-1,-1,-1,-1],"split_conditions":[1E0,2.872278E-1,3.86262E-1,1.9502282E-1,1E0,1.564073E-2,7.799642E-2,-7.8890584E-2,2.1196763E-1,3.3027446E-1,-6.0878135E-2,-5.5743225E-2,3.3027446E-1,2.1048598E-1,2.6025778E-1,5E-1,3.7615526E-1,1.027333E-1,-5.4190148E-2,1.995428E-1,5.8035042E-2,-6.747507E-2,2.7934256E-1,5.069085E-2,5.9541664E-3,-6.763057E-2,4.2783013E-1,6.928634E-2,1.4147602E-1,-3.3471625E-2,1.5541404E-3,3.4066269E-3,-6.384116E-2,4.531568E-2,3.4970418E-3,-6.82954E-2,3.5319235E-2],"split_indices":[2,0,0,0,5,0,0,0,0,0,0,0,0,0,0,5,0,0,0,0,0,0,0,0,0,0,0,0,0,0,0,0,0,0,0,0,0],"split_type":[0,0,0,0,0,0,0,0,0,0,0,0,0,0,0,0,0,0,0,0,0,0,0,0,0,0,0,0,0,0,0,0,0,0,0,0,0],"sum_hessian":[1.3910861E2,8.591328E1,5.3195328E1,4.7805664E1,3.8107613E1,4.036762E1,1.282771E1,2.6628382E1,2.1177282E1,3.5648094E1,2.4595199E0,1.6740307E0,3.869359E1,7.5046387E0,1.3672644E1,8.432132E0,2.7215961E1,3.7069557E1,1.6240296E0,5.398418E0,2.1062212E0,8.354366E0,5.3182774E0,6.948661E0,1.4834707E0,4.1282783E0,2.3087685E1,6.7354035E0,3.0334154E1,1.7811279E0,3.6172898E0,3.0600243E0,2.258253E0,1.35050745E1,9.58261E0,3.2863402E0,2.7047813E1],"tree_param":{"num_deleted":"0","num_feature":"6","num_nodes":"37","size_leaf_vector":"1"}},{"base_weights":[-3.7227268E-3,-2.632204E-1,8.529109E-2,-8.365473E-2,6.084685E-1,-6.074628E-2,7.1233964E-1,7.7285014E-2,-5.1772512E-2],"categories":[],"categories_nodes":[],"categories_segments":[],"categories_sizes":[],"default_left":[0,0,0,0,0,0,0,0,0],"id":4,"left_children":[1,3,-1,-1,5,-1,7,-1,-1],"loss_changes":[3.1467789E1,5.480121E1,0E0,0E0,5.949703E0,0E0,3.4297943E0,0E0,0E0],"parents":[2147483647,0,0,1,1,4,4,6,6],"right_children":[2,4,-1,-1,6,-1,8,-1,-1],"split_conditions":[1E0,1E0,8.529109E-2,-8.365473E-2,1E0,-6.074628E-2,2E0,7.7285014E-2,-5.1772512E-2],"split_indices":[1,3,0,0,2,0,3,0,0],"split_type":[0,0,0,0,0,0,0,0,0],"sum_hessian":[1.3954912E2,1.0763597E2,3.1913143E1,6.495446E1,4.268151E1,2.977557E0,3.9703953E1,3.8196648E1,1.5073059E0],"tree_param":{"num_deleted":"0","num_feature":"6","num_nodes":"9","size_leaf_vector":"1"}},{"base_weights":[-1.5870871E-2,-3.6899036E-1,5.8796436E-1,-5.687544E-1,-1.4047443E-2,-5.7793744E-2,6.7303884E-1,-7.0907734E-2,-3.6432776E-1,7.9786E-2,-6.674928E-2,7.2042756E-2,-4.853281E-2,1.6017074E-2,-5.043384E-1,-1.4079063E-1,4.304205E-1,-3.1426296E-1,4.5815334E-2,-5.9284963E-2,-3.5584787E-1,2.8073367E-1,-4.3310314E-1,5.7393212E-2,-4.4089437E-2,-1.7538218E-2,-4.2369198E-2,4.1980747E-2,-5.0235134E-2,4.721905E-2,-1.9837586E-2,-5.865265E-2,-1.38523085E-2],"categories":[],"categories_nodes":[],"categories_segments":[],"categories_sizes":[],"default_left":[0,0,0,0,0,0,0,0,0,0,0,0,0,0,0,0,0,0,0,0,0,0,0,0,0,0,0,0,0,0,0,0,0],"id":5,"left_children":[1,3,5,7,9,-1,11,-1,13,15,-1,-1,-1,17,19,21,23,25,-1,-1,27,29,31,-1,-1,-1,-1,-1,-1,-1,-1,-1,-1],"loss_changes":[2.9108698E1,6.0978603E0,5.386574E0,1.3215714E0,2.017601E0,0E0,2.9527168E0,0E0,1.3114002E0,2.2963467E0,0E0,0E0,0E0,1.2471545E0,2.4558544E-2,2.400869E0,1.6796975E0,4.2441487E-4,0E0,0E0,1.2556497E0,8.4416115E-1,4.3020797E-1,0E0,0E0,0E0,0E0,0E0,0E0,0E0,0E0,0E0,0E0],"parents":[2147483647,0,0,1,1,2,2,3,3,4,4,6,6,8,8,9,9,13,13,14,14,15,15,16,16,17,17,20,20,21,21,22,22],"right_children":[2,4,6,8,10,-1,12,-1,14,16,-1,-1,-1,18,20,22,24,26,-1,-1,28,30,32,-1,-1,-1,-1,-1,-1,-1,-1,-1,-1],"split_conditions":[1E0,2.872278E-1,1E0,1.9502282E-1,4.2783013E-1,-5.7793744E-2,2E0,-7.0907734E-2,2.147962E-1,3.8876316E-1,-6.674928E-2,7.2042756E-2,-4.853281E-2,2.1048598E-1,2.4579668E-1,3.3027446E-1,5E-1,5E-1,4.5815334E-2,-5.9284963E-2,2.4803653E-1,5E-1,3.7615526E-1,5.7393212E-2,-4.4089437E-2,-1.7538218E-2,-4.2369198E-2,4.1980747E-2,-5.0235134E-2,4.721905E-2,-1.9837586E-2,-5.865265E-2,-1.38523085E-2],"split_indices":[3,0,2,0,0,0,3,0,0,0,0,0,0,0,0,0,5,5,0,0,0,5,0,0,0,0,0,0,0,0,0,0,0],"split_type":[0,0,0,0,0,0,0,0,0,0,0,0,0,0,0,0,0,0,0,0,0,0,0,0,0,0,0,0,0,0,0,0,0],"sum_hessian":[1.3449821E2,8.5113335E1,4.9384884E1,5.407642E1,3.1036917E1,2.9645083E0,4.6420376E1,3.0601954E1,2.3474464E1,2.7907373E1,3.1295433E0,4.4959164E1,1.4612112E0,6.5544963E0,1.6919968E1,1.7498138E1,1.0409235E1,3.9173872E0,2.637109E0,8.726078E0,8.193891E0,7.181619E0,1.031652E1,9.230251E0,1.1789832E0,2.8733747E0,1.0440127E0,1.0053904E0,7.1885004E0,5.1414766E0,2.0401425E0,6.131861E0,4.184659E0],"tree_param":{"num_deleted":"0","num_feature":"6","num_nodes":"33","size_leaf_vector":"1"}},{"base_weights":[-1.1199843E-2,-2.3086183E-1,7.791868E-2,-7.4955635E-2,5.2267224E-1,5.641617E-1,-4.4868987E-2,6.0202677E-2,3.2679502E-2],"categories":[],"categories_nodes":[],"categories_segments":[],"categories_sizes":[],"default_left":[0,0,0,0,0,0,0,0,0],"id":6,"left_children":[1,3,-1,-1,5,7,-1,-1,-1],"loss_changes":[2.3488758E1,4.1755146E1,0E0,0E0,2.015748E0,1.8423462E-1,0E0,0E0,0E0],"parents":[2147483647,0,0,1,1,4,4,5,5],"right_children":[2,4,-1,-1,6,8,-1,-1,-1],"split_conditions":[1E0,1E0,7.791868E-2,-7.4955635E-2,2E0,5E-1,-4.4868987E-2,6.0202677E-2,3.2679502E-2],"split_indices":[1,3,0,0,3,5,0,0,0],"split_type":[0,0,0,0,0,0,0,0,0],"sum_hessian":[1.3325386E2,1.0482821E2,2.8425644E1,6.2092308E1,4.2735905E1,4.138735E1,1.3485589E0,3.4368553E1,7.018792E0],"tree_param":{"num_deleted":"0","num_feature":"6","num_nodes":"9","size_leaf_vector":"1"}},{"base_weights":[1.8823255E-2,-1.9093631E-1,7.361683E-2,-7.14648E-2,3.519099E-1,-3.6785018E-2,3.7303302E-1,6.1053988E-2,3.064833E-1,-3.1179723E-1,4.1096509E-1,-5.2989133E-2,-4.8011695E-3,6.287517E-2,3.1907115E-2],"categories":[],"categories_nodes":[],"categories_segments":[],"categories_sizes":[],"default_left":[0,0,0,0,0,0,0,0,0,0,0,0,0,0,0],"id":7,"left_children":[1,3,-1,-1,5,-1,7,-1,9,11,13,-1,-1,-1,-1],"loss_changes":[2.1041872E1,3.1032925E1,0E0,0E0,9.5570946E-1,0E0,6.47387E-1,0E0,2.9219866E0,3.6695117E-1,5.484476E-1,0E0,0E0,0E0,0E0],"parents":[2147483647,0,0,1,1,4,4,6,6,8,8,9,9,10,10],"right_children":[2,4,-1,-1,6,-1,8,-1,10,12,14,-1,-1,-1,-1],"split_conditions":[1E0,1E0,7.361683E-2,-7.14648E-2,1.564073E-2,-3.6785018E-2,1.027333E-1,6.1053988E-2,1.6104683E-1,1.4147602E-1,1.704594E-1,-5.2989133E-2,-4.8011695E-3,6.287517E-2,3.1907115E-2],"split_indices":[1,2,0,0,0,0,0,0,0,0,0,0,0,0,0],"split_type":[0,0,0,0,0,0,0,0,0,0,0,0,0,0,0],"sum_hessian":[1.3790685E2,1.072729E2,3.0633944E1,5.4437634E1,5.283527E1,1.0383805E0,5.1796886E1,9.547824E0,4.2249065E1,5.820644E0,3.642842E1,2.6340516E0,3.186592E0,9.076105E0,2.7352316E1],"tree_param":{"num_deleted":"0","num_feature":"6","num_nodes":"15","size_leaf_vector":"1"}},{"base_weights":[9.10744E-3,-2.7170295E-1,5.141277E-1,-6.921827E-2,6.908324E-2,-5.3275775E-2,5.9373E-1,6.338855E-2,-4.2067673E-2],"categories":[],"categories_nodes":[],"categories_segments":[],"categories_sizes":[],"default_left":[0,0,0,0,0,0,0,0,0],"id":8,"left_children":[1,3,5,-1,-1,-1,7,-1,-1],"loss_changes":[1.9724318E1,3.666286E1,4.457591E0,0E0,0E0,0E0,2.1671467E0,0E0,0E0],"parents":[2147483647,0,0,1,1,2,2,6,6],"right_children":[2,4,6,-1,-1,-1,8,-1,-1],"split_conditions":[1E0,1E0,1E0,-6.921827E-2,6.908324E-2,-5.3275775E-2,2E0,6.338855E-2,-4.2067673E-2],"split_indices":[3,1,2,0,0,0,3,0,0],"split_type":[0,0,0,0,0,0,0,0,0],"sum_hessian":[1.3709988E2,8.840523E1,4.869466E1,6.172276E1,2.6682468E1,3.0386937E0,4.5655968E1,4.4278316E1,1.3776497E0],"tree_param":{"num_deleted":"0","num_feature":"6","num_nodes":"9","size_leaf_vector":"1"}},{"base_weights":[8.614488E-3,-2.677666E-1,5.0348085E-1,-6.6623256E-2,6.679878E-2,5.3686804E-1,-3.9461847E-2,1.5678953E-1,5.822414E-2,4.084826E-2,-4.0205304E-2],"categories":[],"categories_nodes":[],"categories_segments":[],"categories_sizes":[],"default_left":[0,0,0,0,0,0,0,0,0,0,0],"id":9,"left_children":[1,3,5,-1,-1,7,-1,9,-1,-1,-1],"loss_changes":[1.8121147E1,3.2150978E1,1.6353436E0,0E0,0E0,7.0536995E-1,0E0,1.0496849E0,0E0,0E0,0E0],"parents":[2147483647,0,0,1,1,2,2,5,5,7,7],"right_children":[2,4,6,-1,-1,8,-1,10,-1,-1,-1],"split_conditions":[1E0,1E0,2E0,-6.6623256E-2,6.679878E-2,7.999115E-2,-3.9461847E-2,2.2233797E-2,5.822414E-2,4.084826E-2,-4.0205304E-2],"split_indices":[3,1,3,0,0,0,0,0,0,0,0],"split_type":[0,0,0,0,0,0,0,0,0,0,0],"sum_hessian":[1.3050624E2,8.403302E1,4.647323E1,5.91385E1,2.489452E1,4.5195293E1,1.2779359E0,5.295133E0,3.9900158E1,3.8363593E0,1.4587739E0],"tree_param":{"num_deleted":"0","num_feature":"6","num_nodes":"11","size_leaf_vector":"1"}},{"base_weights":[-1.3362554E-2,-2.3724338E-1,4.562557E-1,-3.7854934E-1,3.1565273E-1,4.9171996E-1,-3.784689E-2,-5.8962125E-2,-2.3084383E-1,3.8108084E-1,-3.5236813E-2,1.7892221E-2,5.517117E-1,-4.4187278E-2,-2.800304E-1,5.1478088E-2,1.8875988E-1,3.0554488E-2,-3.6869284E-2,5.842883E-2,3.3735335E-2,1.378917E-1,-4.5089345E-2,-4.0355198E-2,-1.3588387E-1,-4.879446E-2,5.2715547E-2,-1.1808444E-2,3.3609826E-2,3.5360694E-2,-2.9364988E-2],"categories":[],"categories_nodes":[],"categories_segments":[],"categories_sizes":[],"default_left":[0,0,0,0,0,0,0,0,0,0,0,0,0,0,0,0,0,0,0,0,0,0,0,0,0,0,0,0,0,0,0],"id":10,"left_children":[1,3,5,7,9,11,-1,-1,13,15,-1,17,19,21,23,-1,25,-1,-1,-1,-1,27,-1,-1,29,-1,-1,-1,-1,-1,-1],"loss_changes":[1.3355789E1,6.837064E0,1.4003735E0,2.0130444E0,9.23072E-1,1.1209593E0,0E0,0E0,3.7505078E-1,3.378384E-1,0E0,7.247414E-1,4.9233437E-2,8.0182177E-1,5.3648186E-1,0E0,2.2075264E0,0E0,0E0,0E0,0E0,4.285882E-1,0E0,0E0,1.4037929E0,0E0,0E0,0E0,0E0,0E0,0E0],"parents":[2147483647,0,0,1,1,2,2,3,3,4,4,5,5,8,8,9,9,11,11,12,12,13,13,14,14,16,16,21,21,24,24],"right_children":[2,4,6,8,10,12,-1,-1,14,16,-1,18,20,22,24,-1,26,-1,-1,-1,-1,28,-1,-1,30,-1,-1,-1,-1,-1,-1],"split_conditions":[1E0,3.8876316E-1,2E0,1.7424783E-1,5E-1,8.0614135E-2,-3.784689E-2,-5.8962125E-2,2.147962E-1,4.2783013E-1,-3.5236813E-2,2.2233797E-2,5E-1,5E-1,2.872278E-1,5.1478088E-2,4.729023E-1,3.0554488E-2,-3.6869284E-2,5.842883E-2,3.3735335E-2,2.054695E-1,-4.5089345E-2,-4.0355198E-2,3.0317205E-1,-4.879446E-2,5.2715547E-2,-1.1808444E-2,3.3609826E-2,3.5360694E-2,-2.9364988E-2],"split_indices":[3,0,3,0,5,0,0,0,0,0,0,0,5,5,0,0,0,0,0,0,0,0,0,0,0,0,0,0,0,0,0],"split_type":[0,0,0,0,0,0,0,0,0,0,0,0,0,0,0,0,0,0,0,0,0,0,0,0,0,0,0,0,0,0,0],"sum_hessian":[1.2500088E2,8.4982185E1,4.0018692E1,6.7935074E1,1.7047115E1,3.8781914E1,1.2367765E0,2.6736546E1,4.1198524E1,1.5917629E1,1.1294857E0,4.5042887E0,3.4277626E1,8.988128E0,3.2210396E1,8.400789E0,7.51684E0,2.7028017E0,1.8014871E0,2.8257502E1,6.0201244E0,6.6651506E0,2.3229775E0,1.6377039E1,1.5833357E1,2.3585029E0,5.158337E0,3.0850992E0,3.5800514E0,3.5567408E0,1.2276616E1],"tree_param":{"num_deleted":"0","num_feature":"6","num_nodes":"31","size_leaf_vector":"1"}},{"base_weights":[2.1881837E-2,-2.3139103E-1,4.7495297E-1,-3.7732744E-1,3.2035884E-1,-5.0735094E-2,5.573814E-1,-5.5754572E-2,-2.184002E-1,2.0683104E-1,5.101348E-2,5.896599E-2,-3.53653E-2,1.5418518E-1,-2.6561666E-1,4.0076214E-1,-4.79569E-2,-2.084396E-3,3.617985E-2,-4.0078223E-2,-1.14727646E-1,4.812428E-2,2.2108601E-1,2.3289863E-2,-3.472438E-2,-5.335574E-3,4.29884E-2],"categories":[],"categories_nodes":[],"categories_segments":[],"categories_sizes":[],"default_left":[0,0,0,0,0,0,0,0,0,0,0,0,0,0,0,0,0,0,0,0,0,0,0,0,0,0,0],"id":11,"left_children":[1,3,5,7,9,-1,11,-1,13,15,-1,-1,-1,17,19,21,-1,-1,-1,-1,23,-1,25,-1,-1,-1,-1],"loss_changes":[1.506148E1,6.9046073E0,4.0922337E0,1.7996607E0,2.8581274E-1,0E0,1.4989643E0,0E0,6.970073E-1,1.9288831E0,0E0,0E0,0E0,1.829507E-1,6.365428E-1,4.8580766E-2,0E0,0E0,0E0,0E0,1.4722551E0,0E0,3.1892103E-1,0E0,0E0,0E0,0E0],"parents":[2147483647,0,0,1,1,2,2,3,3,4,4,6,6,8,8,9,9,13,13,14,14,15,15,20,20,22,22],"right_children":[2,4,6,8,10,-1,12,-1,14,16,-1,-1,-1,18,20,22,-1,-1,-1,-1,24,-1,26,-1,-1,-1,-1],"split_conditions":[1E0,3.8876316E-1,1E0,1.995428E-1,4.729023E-1,-5.0735094E-2,2E0,-5.5754572E-2,2.105961E-1,4.2783013E-1,5.101348E-2,5.896599E-2,-3.53653E-2,2.1048598E-1,2.872278E-1,3.9773628E-1,-4.79569E-2,-2.084396E-3,3.617985E-2,-4.0078223E-2,3.3027446E-1,4.812428E-2,4.2409256E-1,2.3289863E-2,-3.472438E-2,-5.335574E-3,4.29884E-2],"split_indices":[3,0,2,0,0,0,3,0,0,0,0,0,0,0,0,0,0,0,0,0,0,0,0,0,0,0,0],"split_type":[0,0,0,0,0,0,0,0,0,0,0,0,0,0,0,0,0,0,0,0,0,0,0,0,0,0,0],"sum_hessian":[1.292963E2,8.324853E1,4.6047764E1,6.6085266E1,1.7163258E1,3.1657925E0,4.288197E1,2.9792908E1,3.6292362E1,1.2046606E1,5.1166525E0,4.175531E1,1.1266583E0,3.8271103E0,3.2465252E1,9.717285E0,2.3293207E0,2.5646095E0,1.2625008E0,1.625129E1,1.621396E1,5.5520263E0,4.1652584E0,6.497759E0,9.716203E0,2.1213899E0,2.0438688E0],"tree_param":{"num_deleted":"0","num_feature":"6","num_nodes":"27","size_leaf_vector":"1"}},{"base_weights":[-2.1425659E-2,-3.0402663E-1,4.525491E-1,-4.4852868E-1,-2.1204589E-2,4.804968E-1,-3.434031E-2,-5.6137677E-2,-3.0755842E-1,4.4567008E-2,-1.249745E-1,9.6606806E-2,5.258829E-2,-8.281582E-2,-4.2166103E-2,-3.8713846E-1,4.2463273E-2,3.605148E-2,-3.860337E-2,9.300176E-2,-4.3685474E-2,-3.7183814E-2,-5.2755576E-2,2.0890665E-1,-5.0024785E-2,-1.8807361E-3,2.8484473E-2,-1.6064383E-2,1.0210327E-2,-2.2962443E-3,3.141292E-2],"categories":[],"categories_nodes":[],"categories_segments":[],"categories_sizes":[],"default_left":[0,0,0,0,0,0,0,0,0,0,0,0,0,0,0,0,0,0,0,0,0,0,0,0,0,0,0,0,0,0,0],"id":12,"left_children":[1,3,5,7,9,11,-1,-1,13,-1,15,17,-1,19,-1,21,23,-1,-1,25,-1,27,-1,29,-1,-1,-1,-1,-1,-1,-1],"loss_changes":[1.6145798E1,3.074812E0,1.1669855E0,6.2115765E-1,1.3429545E0,7.1463394E-1,0E0,0E0,5.907135E-1,0E0,1.0049553E0,8.8682723E-1,0E0,6.294714E-1,0E0,4.1653812E-1,1.4272722E0,0E0,0E0,1.5862411E-1,0E0,7.860855E-2,0E0,2.9784214E-1,0E0,0E0,0E0,0E0,0E0,0E0,0E0],"parents":[2147483647,0,0,1,1,2,2,3,3,4,4,5,5,8,8,10,10,11,11,13,13,15,15,16,16,19,19,21,21,23,23],"right_children":[2,4,6,8,10,12,-1,-1,14,-1,16,18,-1,20,-1,22,24,-1,-1,26,-1,28,-1,30,-1,-1,-1,-1,-1,-1,-1],"split_conditions":[1E0,2.9098013E-1,2E0,1.7424783E-1,3.0317205E-1,8.0614135E-2,-3.434031E-2,-5.6137677E-2,2.147962E-1,4.4567008E-2,3.7615526E-1,2.2233797E-2,5.258829E-2,5E-1,-4.2166103E-2,3.3027446E-1,4.2783013E-1,3.605148E-2,-3.860337E-2,2.1048598E-1,-4.3685474E-2,3.2140514E-1,-5.2755576E-2,3.8876316E-1,-5.0024785E-2,-1.8807361E-3,2.8484473E-2,-1.6064383E-2,1.0210327E-2,-2.2962443E-3,3.141292E-2],"split_indices":[3,0,3,0,0,0,0,0,0,0,0,0,0,5,0,0,0,0,0,0,0,0,0,0,0,0,0,0,0,0,0],"split_type":[0,0,0,0,0,0,0,0,0,0,0,0,0,0,0,0,0,0,0,0,0,0,0,0,0,0,0,0,0,0,0],"sum_hessian":[1.1851266E2,7.446969E1,4.4042973E1,4.8899563E1,2.5570124E1,4.293186E1,1.1111112E0,2.55024E1,2.3397163E1,4.0506988E0,2.1519424E1,4.8698335E0,3.8062027E1,8.459896E0,1.4937267E1,7.8758154E0,1.3643609E1,3.311914E0,1.5579191E0,6.14538E0,2.314516E0,2.617405E0,5.2584105E0,1.0912069E1,2.7315402E0,4.45241E0,1.6929703E0,1.306252E0,1.3111529E0,3.650211E0,7.261858E0],"tree_param":{"num_deleted":"0","num_feature":"6","num_nodes":"31","size_leaf_vector":"1"}},{"base_weights":[1.9712385E-2,-1.6510078E-1,6.405344E-2,-6.16525E-2,4.306443E-1,4.579456E-2,-3.2855593E-2],"categories":[],"categories_nodes":[],"categories_segments":[],"categories_sizes":[],"default_left":[0,0,0,0,0,0,0],"id":13,"left_children":[1,3,-1,-1,5,-1,-1],"loss_changes":[1.4444835E1,2.637906E1,0E0,0E0,1.030282E0,0E0,0E0],"parents":[2147483647,0,0,1,1,4,4],"right_children":[2,4,-1,-1,6,-1,-1],"split_conditions":[1E0,1E0,6.405344E-2,-6.16525E-2,2E0,4.579456E-2,-3.2855593E-2],"split_indices":[1,3,0,0,3,0,0],"split_type":[0,0,0,0,0,0,0],"sum_hessian":[1.2397449E2,9.6100334E1,2.7874153E1,5.46526E1,4.1447735E1,4.0392017E1,1.0557163E0],"tree_param":{"num_deleted":"0","num_feature":"6","num_nodes":"7","size_leaf_vector":"1"}},{"base_weights":[-5.5449186E-3,-2.550585E-1,4.2898023E-1,-4.225509E-1,4.3959014E-2,4.5409834E-1,-3.1842466E-2,-5.4097682E-2,-2.7910417E-1,1.0852179E-1,-4.6461966E-2,6.067844E-2,5.0097074E-2,-7.0922606E-2,-3.907796E-2,-4.5843028E-2,3.609643E-1,3.0449389E-2,-3.7423167E-2,8.340101E-2,-4.1487284E-2,3.1274265E-1,-2.6498473E-1,4.3065645E-2,1.937668E-1,-8.067974E-3,2.4268849E-2,4.1144986E-2,-6.8923617E-3,-3.7641022E-2,-2.0288366E-3,-3.4277376E-2,4.4456884E-2],"categories":[],"categories_nodes":[],"categories_segments":[],"categories_sizes":[],"default_left":[0,0,0,0,0,0,0,0,0,0,0,0,0,0,0,0,0,0,0,0,0,0,0,0,0,0,0,0,0,0,0,0,0],"id":14,"left_children":[1,3,5,7,9,11,-1,-1,13,15,-1,17,-1,19,-1,21,23,-1,-1,25,-1,27,29,-1,31,-1,-1,-1,-1,-1,-1,-1,-1],"loss_changes":[1.3133172E1,3.871653E0,9.741869E-1,6.8831253E-1,9.871279E-1,7.6558876E-1,0E0,0E0,5.3975487E-1,1.0345767E0,0E0,7.218719E-1,0E0,5.517979E-1,0E0,1.4265143E0,3.3376932E-2,0E0,0E0,2.1713166E-1,0E0,2.8998148E-1,2.96489E-1,0E0,7.939291E-1,0E0,0E0,0E0,0E0,0E0,0E0,0E0,0E0],"parents":[2147483647,0,0,1,1,2,2,3,3,4,4,5,5,8,8,9,9,11,11,13,13,15,15,16,16,19,19,21,21,22,22,24,24],"right_children":[2,4,6,8,10,12,-1,-1,14,16,-1,18,-1,20,-1,22,24,-1,-1,26,-1,28,30,-1,32,-1,-1,-1,-1,-1,-1,-1,-1],"split_conditions":[1E0,2.872278E-1,2E0,1.7424783E-1,4.2783013E-1,8.0614135E-2,-3.1842466E-2,-5.4097682E-2,2.147962E-1,3.8876316E-1,-4.6461966E-2,2.2233797E-2,5.0097074E-2,5E-1,-3.907796E-2,3.1269753E-1,3.9773628E-1,3.0449389E-2,-3.7423167E-2,2.054695E-1,-4.1487284E-2,5E-1,3.7615526E-1,4.3065645E-2,4.2409256E-1,-8.067974E-3,2.4268849E-2,4.1144986E-2,-6.8923617E-3,-3.7641022E-2,-2.0288366E-3,-3.4277376E-2,4.4456884E-2],"split_indices":[3,0,3,0,0,0,0,0,0,0,0,0,0,5,0,0,0,0,0,0,0,5,0,0,0,0,0,0,0,0,0,0,0],"split_type":[0,0,0,0,0,0,0,0,0,0,0,0,0,0,0,0,0,0,0,0,0,0,0,0,0,0,0,0,0,0,0,0,0],"sum_hessian":[1.1912328E2,7.593361E1,4.3189674E1,4.8406143E1,2.7527464E1,4.2165062E1,1.0246134E0,2.499754E1,2.3408604E1,2.512458E1,2.4028845E0,4.733056E0,3.7432007E1,8.7437935E0,1.466481E1,1.6098804E1,9.025776E0,3.224971E0,1.5080853E0,6.5586004E0,2.185193E0,5.944531E0,1.0154273E1,5.2582636E0,3.7675123E0,3.4737818E0,3.0848186E0,4.661047E0,1.283484E0,6.607289E0,3.5469842E0,1.0832999E0,2.6842124E0],"tree_param":{"num_deleted":"0","num_feature":"6","num_nodes":"33","size_leaf_vector":"1"}},{"base_weights":[-3.343697E-2,-2.8821707E-1,4.120433E-1,-5.9586316E-2,5.9587874E-2,2.0112294E-1,4.8553288E-2,3.0838698E-1,-3.725907E-2,7.988383E-2,4.6652105E-2,3.358904E-2,-3.708022E-2],"categories":[],"categories_nodes":[],"categories_segments":[],"categories_sizes":[],"default_left":[0,0,0,0,0,0,0,0,0,0,0,0,0],"id":15,"left_children":[1,3,5,-1,-1,7,-1,9,-1,11,-1,-1,-1],"loss_changes":[1.2845672E1,1.991721E1,5.4110956E-1,0E0,0E0,8.7523556E-1,0E0,3.5863018E-1,0E0,7.807918E-1,0E0,0E0,0E0],"parents":[2147483647,0,0,1,1,2,2,5,5,7,7,9,9],"right_children":[2,4,6,-1,-1,8,-1,10,-1,12,-1,-1,-1],"split_conditions":[1E0,1E0,1.4413233E-1,-5.9586316E-2,5.9587874E-2,1.027333E-1,4.8553288E-2,8.0614135E-2,-3.725907E-2,2.2233797E-2,4.6652105E-2,3.358904E-2,-3.708022E-2],"split_indices":[3,1,0,0,0,0,0,0,0,0,0,0,0],"split_type":[0,0,0,0,0,0,0,0,0,0,0,0,0],"sum_hessian":[1.111319E2,7.092267E1,4.0209236E1,5.285596E1,1.8066704E1,1.1355342E1,2.8853893E1,9.956334E0,1.399008E0,4.6877365E0,5.2685976E0,3.151997E0,1.5357393E0],"tree_param":{"num_deleted":"0","num_feature":"6","num_nodes":"13","size_leaf_vector":"1"}},{"base_weights":[5.7639545E-3,-1.966982E-1,4.046021E-1,-3.9187053E-1,1.0432789E-1,-4.81657E-2,4.9532462E-2,-5.5420596E-2,-2.2373813E-1,1.8054165E-2,4.7230456E-2,-3.611796E-2,-3.3228573E-1,8.085179E-2,-4.4094373E-2,-1.4620434E-1,2.876359E-2,-3.7242554E-2,-1.704553E-1,-6.1605513E-2,3.2884014E-1,7.639908E-3,-1.9002063E-2,1.4902472E-2,-4.1434344E-2,2.8583607E-2,-2.5540961E-2,2.1873757E-2,4.2723183E-2],"categories":[],"categories_nodes":[],"categories_segments":[],"categories_sizes":[],"default_left":[0,0,0,0,0,0,0,0,0,0,0,0,0,0,0,0,0,0,0,0,0,0,0,0,0,0,0,0,0],"id":16,"left_children":[1,3,5,7,9,-1,-1,-1,11,13,-1,15,17,19,-1,21,-1,-1,23,25,27,-1,-1,-1,-1,-1,-1,-1,-1],"loss_changes":[9.35663E0,4.557516E0,3.375143E0,1.1546755E0,9.765069E-1,0E0,0E0,0E0,4.9083495E-1,7.9010886E-1,0E0,4.045618E-1,3.7328362E-2,8.635182E-1,0E0,9.501651E-2,0E0,0E0,4.45745E-1,1.1505637E0,2.6038885E-3,0E0,0E0,0E0,0E0,0E0,0E0,0E0,0E0],"parents":[2147483647,0,0,1,1,2,2,3,3,4,4,8,8,9,9,11,11,12,12,13,13,15,15,18,18,19,19,20,20],"right_children":[2,4,6,8,10,-1,-1,-1,12,14,-1,16,18,20,-1,22,-1,-1,24,26,28,-1,-1,-1,-1,-1,-1,-1,-1],"split_conditions":[1E0,2.872278E-1,1E0,1.7424783E-1,4.729023E-1,-4.81657E-2,4.9532462E-2,-5.5420596E-2,2.147962E-1,4.2783013E-1,4.7230456E-2,2.1048598E-1,2.6025778E-1,3.8876316E-1,-4.4094373E-2,1.7870973E-1,2.876359E-2,-3.7242554E-2,2.779544E-1,3.1269753E-1,4.2409256E-1,7.639908E-3,-1.9002063E-2,1.4902472E-2,-4.1434344E-2,2.8583607E-2,-2.5540961E-2,2.1873757E-2,4.2723183E-2],"split_indices":[3,0,2,0,0,0,0,0,0,0,0,0,0,0,0,0,0,0,0,0,0,0,0,0,0,0,0,0,0],"split_type":[0,0,0,0,0,0,0,0,0,0,0,0,0,0,0,0,0,0,0,0,0,0,0,0,0,0,0,0,0],"sum_hessian":[1.13886536E2,7.587629E1,3.8010246E1,4.584839E1,3.0027903E1,3.1294858E0,3.488076E1,2.215806E1,2.3690329E1,2.5174658E1,4.8532443E0,9.171132E0,1.4519196E1,2.2869612E1,2.305046E0,7.2532206E0,1.9179113E0,1.0590929E1,3.9282665E0,1.5002806E1,7.8668065E0,1.0705907E0,6.1826296E0,1.868975E0,2.0592916E0,5.2020245E0,9.800781E0,5.233514E0,2.6332927E0],"tree_param":{"num_deleted":"0","num_feature":"6","num_nodes":"29","size_leaf_vector":"1"}},{"base_weights":[-1.5251845E-4,-1.8678632E-1,6.089988E-2,-5.8023047E-2,2.4711382E-1,1.8422874E-2,4.1397754E-2],"categories":[],"categories_nodes":[],"categories_segments":[],"categories_sizes":[],"default_left":[0,0,0,0,0,0,0],"id":17,"left_children":[1,3,-1,-1,5,-1,-1],"loss_changes":[1.2811832E1,1.4869725E1,0E0,0E0,3.6154795E-1,0E0,0E0],"parents":[2147483647,0,0,1,1,4,4],"right_children":[2,4,-1,-1,6,-1,-1],"split_conditions":[1E0,1E0,6.089988E-2,-5.8023047E-2,5E-1,1.8422874E-2,4.1397754E-2],"split_indices":[1,2,0,0,5,0,0],"split_type":[0,0,0,0,0,0,0],"sum_hessian":[1.1069214E2,8.52625E1,2.5429642E1,4.453899E1,4.0723503E1,3.1105135E1,9.61837E0],"tree_param":{"num_deleted":"0","num_feature":"6","num_nodes":"7","size_leaf_vector":"1"}},{"base_weights":[1.8237728E-3,-1.7876032E-1,5.9016008E-2,-5.7125438E-2,3.739677E-1,4.0370718E-1,-3.1159589E-2,2.9407209E-2,4.4933207E-2,2.5343327E-2,-3.297418E-2],"categories":[],"categories_nodes":[],"categories_segments":[],"categories_sizes":[],"default_left":[0,0,0,0,0,0,0,0,0,0,0],"id":18,"left_children":[1,3,-1,-1,5,7,-1,9,-1,-1,-1],"loss_changes":[1.1714414E1,1.8517551E1,0E0,0E0,8.5241413E-1,5.775442E-1,0E0,4.7206718E-1,0E0,0E0,0E0],"parents":[2147483647,0,0,1,1,4,4,5,5,7,7],"right_children":[2,4,-1,-1,6,8,-1,10,-1,-1,-1],"split_conditions":[1E0,1E0,5.9016008E-2,-5.7125438E-2,2E0,8.0614135E-2,-3.1159589E-2,2.2233797E-2,4.4933207E-2,2.5343327E-2,-3.297418E-2],"split_indices":[1,3,0,0,3,0,0,0,0,0,0],"split_type":[0,0,0,0,0,0,0,0,0,0,0],"sum_hessian":[1.0826637E2,8.337224E1,2.4894136E1,4.8733147E1,3.463909E1,3.359297E1,1.0461191E0,3.8285587E0,2.9764412E1,2.5390983E0,1.2894604E0],"tree_param":{"num_deleted":"0","num_feature":"6","num_nodes":"11","size_leaf_vector":"1"}},{"base_weights":[-1.5958734E-2,-2.787289E-1,3.9706865E-1,-2.0261508E-1,-4.7012337E-2,-4.4883396E-2,4.7492597E-2,-1.2517626E-2,-5.136624E-2],"categories":[],"categories_nodes":[],"categories_segments":[],"categories_sizes":[],"default_left":[0,0,0,0,0,0,0,0,0],"id":19,"left_children":[1,3,5,7,-1,-1,-1,-1,-1],"loss_changes":[1.1055343E1,8.111534E-1,2.8227468E0,1.0503118E0,0E0,0E0,0E0,0E0,0E0],"parents":[2147483647,0,0,1,1,2,2,3,3],"right_children":[2,4,6,8,-1,-1,-1,-1,-1],"split_conditions":[1E0,5E-1,1E0,1E0,-4.7012337E-2,-4.4883396E-2,4.7492597E-2,-1.2517626E-2,-5.136624E-2],"split_indices":[3,5,2,2,0,0,0,0,0],"split_type":[0,0,0,0,0,0,0,0,0],"sum_hessian":[9.984345E1,6.1220078E1,3.862338E1,4.5274082E1,1.5945993E1,2.8537023E0,3.5769676E1,3.737226E1,7.901822E0],"tree_param":{"num_deleted":"0","num_feature":"6","num_nodes":"9","size_leaf_vector":"1"}},{"base_weights":[-1.4722123E-2,-1.6552722E-1,5.8353644E-2,-1.18576564E-1,-5.043633E-2,-1.5582815E-1,1.3967855E-1,-1.0413502E-1,-4.4628106E-2,3.9765682E-2,-1.3304937E-1,7.232682E-2,-1.5272988E-1,-4.4530787E-2,3.566676E-2,-1.05741825E-2,2.9515674E-2,-4.23704E-2,-4.1530263E-3],"categories":[],"categories_nodes":[],"categories_segments":[],"categories_sizes":[],"default_left":[0,0,0,0,0,0,0,0,0,0,0,0,0,0,0,0,0,0,0],"id":20,"left_children":[1,3,-1,5,-1,7,9,11,-1,-1,13,15,17,-1,-1,-1,-1,-1,-1],"loss_changes":[9.21019E0,1.2360599E0,0E0,7.226223E-1,0E0,9.1655207E-1,7.361479E-1,4.891432E-1,0E0,0E0,9.952613E-1,5.3581434E-1,1.309326E0,0E0,0E0,0E0,0E0,0E0,0E0],"parents":[2147483647,0,0,1,1,3,3,5,5,6,6,7,7,10,10,11,11,12,12],"right_children":[2,4,-1,6,-1,8,10,12,-1,-1,14,16,18,-1,-1,-1,-1,-1,-1],"split_conditions":[1E0,1E0,5.8353644E-2,3.8876316E-1,-5.043633E-2,2.8314018E-1,3.9773628E-1,1.027333E-1,-4.4628106E-2,3.9765682E-2,5.390894E-1,8.422659E-2,1.6104683E-1,-4.4530787E-2,3.566676E-2,-1.05741825E-2,2.9515674E-2,-4.23704E-2,-4.1530263E-3],"split_indices":[1,5,0,0,0,0,0,0,0,0,0,0,0,0,0,0,0,0,0],"split_type":[0,0,0,0,0,0,0,0,0,0,0,0,0,0,0,0,0,0,0],"sum_hessian":[1.00014786E2,8.045702E1,1.9557762E1,7.1850975E1,8.606045E0,6.3140057E1,8.710923E0,5.4753815E1,8.386241E0,4.2411094E0,4.469814E0,1.1717146E1,4.303667E1,2.7848141E0,1.6849993E0,6.804761E0,4.912385E0,1.1704512E1,3.1332157E1],"tree_param":{"num_deleted":"0","num_feature":"6","num_nodes":"19","size_leaf_vector":"1"}},{"base_weights":[-4.0671915E-2,-2.5413457E-1,3.7994474E-1,-4.0046746E-1,2.3656081E-2,-4.3070942E-2,4.6823412E-2,-5.1127266E-2,-2.6589495E-1,8.50884E-2,-3.9728254E-2,-1.16896026E-1,-3.1926247E-1,-6.043313E-2,3.1824383E-1,-2.5524918E-2,9.930133E-3,-3.9169542E-2,-1.9822767E-1,2.351202E-1,-2.906881E-1,3.818668E-2,1.5846536E-2,-6.49292E-3,-3.8187083E-2,2.7195577E-2,2.2064403E-3,-4.0103417E-2,-2.6770048E-3],"categories":[],"categories_nodes":[],"categories_segments":[],"categories_sizes":[],"default_left":[0,0,0,0,0,0,0,0,0,0,0,0,0,0,0,0,0,0,0,0,0,0,0,0,0,0,0,0,0],"id":21,"left_children":[1,3,5,7,9,-1,-1,-1,11,13,-1,15,17,19,21,-1,-1,-1,23,25,27,-1,-1,-1,-1,-1,-1,-1,-1],"loss_changes":[8.415234E0,2.5321522E0,2.462739E0,4.7098684E-1,6.1191225E-1,0E0,0E0,0E0,1.2540114E-1,7.0909405E-1,0E0,2.3395842E-1,4.9382687E-2,9.774822E-1,2.0538807E-2,0E0,0E0,0E0,1.5756068E-1,4.425013E-2,2.2097123E-1,0E0,0E0,0E0,0E0,0E0,0E0,0E0,0E0],"parents":[2147483647,0,0,1,1,2,2,3,3,4,4,8,8,9,9,11,11,12,12,13,13,14,14,18,18,19,19,20,20],"right_children":[2,4,6,8,10,-1,-1,-1,12,14,-1,16,18,20,22,-1,-1,-1,24,26,28,-1,-1,-1,-1,-1,-1,-1,-1],"split_conditions":[1E0,2.872278E-1,1E0,1.8030018E-1,4.2783013E-1,-4.3070942E-2,4.6823412E-2,-5.1127266E-2,2.1196763E-1,3.8876316E-1,-3.9728254E-2,2.054695E-1,2.4579668E-1,3.3027446E-1,3.9773628E-1,-2.5524918E-2,9.930133E-3,-3.9169542E-2,2.779544E-1,3.1269753E-1,3.7918985E-1,3.818668E-2,1.5846536E-2,-6.49292E-3,-3.8187083E-2,2.7195577E-2,2.2064403E-3,-4.0103417E-2,-2.6770048E-3],"split_indices":[3,0,2,0,0,0,0,0,0,0,0,0,0,0,0,0,0,0,0,0,0,0,0,0,0,0,0,0,0],"split_type":[0,0,0,0,0,0,0,0,0,0,0,0,0,0,0,0,0,0,0,0,0,0,0,0,0,0,0,0,0],"sum_hessian":[9.1650085E1,6.1058662E1,3.0591423E1,3.9702698E1,2.1355963E1,2.6236107E0,2.7967812E1,2.0238968E1,1.946373E1,1.9332424E1,2.0235386E0,5.974283E0,1.3489447E1,1.23593E1,6.973125E0,3.5328462E0,2.4414368E0,7.0400977E0,6.4493494E0,5.4029675E0,6.9563327E0,3.993113E0,2.9800117E0,4.521183E0,1.928166E0,4.370834E0,1.0321337E0,4.539002E0,2.4173305E0],"tree_param":{"num_deleted":"0","num_feature":"6","num_nodes":"29","size_leaf_vector":"1"}},{"base_weights":[-2.5679285E-2,-2.6014817E-1,3.7630326E-1,-5.5203E-2,5.4675173E-2,-4.239468E-2,4.5206502E-1,4.8635468E-2,-3.0390356E-2],"categories":[],"categories_nodes":[],"categories_segments":[],"categories_sizes":[],"default_left":[0,0,0,0,0,0,0,0,0],"id":22,"left_children":[1,3,5,-1,-1,-1,7,-1,-1],"loss_changes":[9.092355E0,1.4636591E1,2.3478994E0,0E0,0E0,0E0,1.0025301E0,0E0,0E0],"parents":[2147483647,0,0,1,1,2,2,6,6],"right_children":[2,4,6,-1,-1,-1,8,-1,-1],"split_conditions":[1E0,1E0,1E0,-5.5203E-2,5.4675173E-2,-4.239468E-2,2E0,4.8635468E-2,-3.0390356E-2],"split_indices":[3,1,2,0,0,0,3,0,0],"split_type":[0,0,0,0,0,0,0,0,0],"sum_hessian":[9.44295E1,5.98645E1,3.4565002E1,4.4193974E1,1.5670525E1,2.5918837E0,3.197312E1,3.0926964E1,1.0461552E0],"tree_param":{"num_deleted":"0","num_feature":"6","num_nodes":"9","size_leaf_vector":"1"}},{"base_weights":[6.176636E-3,-1.661944E-1,5.593274E-2,-5.4484375E-2,3.4789425E-1,-4.1415777E-2,4.2656934E-1,4.6473485E-1,-3.0382637E-2,5.1543217E-2,3.39723E-1,9.937525E-3,4.6808567E-2],"categories":[],"categories_nodes":[],"categories_segments":[],"categories_sizes":[],"default_left":[0,0,0,0,0,0,0,0,0,0,0,0,0],"id":23,"left_children":[1,3,-1,-1,5,-1,7,9,-1,-1,11,-1,-1],"loss_changes":[9.268629E0,1.4621923E1,0E0,0E0,2.098632E0,0E0,9.6492624E-1,5.3811073E-3,0E0,0E0,2.974832E-1,0E0,0E0],"parents":[2147483647,0,0,1,1,4,4,6,6,7,7,10,10],"right_children":[2,4,-1,-1,6,-1,8,10,-1,-1,12,-1,-1],"split_conditions":[1E0,1E0,5.593274E-2,-5.4484375E-2,1E0,-4.1415777E-2,2E0,2.5329456E-1,-3.0382637E-2,5.1543217E-2,3.0317205E-1,9.937525E-3,4.6808567E-2],"split_indices":[1,3,0,0,2,0,3,0,0,0,0,0,0],"split_type":[0,0,0,0,0,0,0,0,0,0,0,0,0],"sum_hessian":[9.523433E1,7.31417E1,2.2092627E1,4.208465E1,3.1057056E1,2.5072746E0,2.8549782E1,2.7477705E1,1.0720762E0,1.7327604E1,1.0150102E1,4.1513124E0,5.9987893E0],"tree_param":{"num_deleted":"0","num_feature":"6","num_nodes":"13","size_leaf_vector":"1"}},{"base_weights":[1.5771253E-2,-1.5556304E-1,5.5625934E-2,-2.0117718E-1,1.5091199E-1,-1.4775147E-1,-5.151686E-2,3.7643168E-2,-4.8853096E-2,-1.0155138E-1,-4.6119045E-2,-4.211712E-2,3.8444802E-2,9.7537346E-2,-1.5909627E-1,-1.43160075E-2,3.2162365E-2,-4.1247394E-2,-5.462384E-3],"categories":[],"categories_nodes":[],"categories_segments":[],"categories_sizes":[],"default_left":[0,0,0,0,0,0,0,0,0,0,0,0,0,0,0,0,0,0,0],"id":24,"left_children":[1,3,-1,5,7,9,-1,-1,11,13,-1,-1,-1,15,17,-1,-1,-1,-1],"loss_changes":[8.685888E0,1.0269837E0,0E0,9.720652E-1,4.6022135E-1,7.467246E-1,0E0,0E0,1.1437111E0,5.7738036E-1,0E0,0E0,0E0,6.726204E-1,9.946467E-1,0E0,0E0,0E0,0E0],"parents":[2147483647,0,0,1,1,3,3,4,4,5,5,8,8,9,9,13,13,14,14],"right_children":[2,4,-1,6,8,10,-1,-1,12,14,-1,-1,-1,16,18,-1,-1,-1,-1],"split_conditions":[1E0,3.8876316E-1,5.5625934E-2,2.8314018E-1,3.9773628E-1,1E0,-5.151686E-2,3.7643168E-2,5.390894E-1,1.027333E-1,-4.6119045E-2,-4.211712E-2,3.8444802E-2,8.422659E-2,1.6104683E-1,-1.43160075E-2,3.2162365E-2,-4.1247394E-2,-5.462384E-3],"split_indices":[1,0,0,0,0,5,0,0,0,0,0,0,0,0,0,0,0,0,0],"split_type":[0,0,0,0,0,0,0,0,0,0,0,0,0,0,0,0,0,0,0],"sum_hessian":[9.186144E1,7.029133E1,2.1570116E1,6.1483955E1,8.807371E0,5.380037E1,7.6835876E0,3.7215972E0,5.0857744E0,4.8042953E1,5.757414E0,2.750433E0,2.3353412E0,1.0616826E1,3.742613E1,5.2928095E0,5.3240166E0,1.0065659E1,2.736047E1],"tree_param":{"num_deleted":"0","num_feature":"6","num_nodes":"19","size_leaf_vector":"1"}},{"base_weights":[6.6106697E-3,-1.6587232E-1,5.4922044E-2,-5.3489573E-2,2.2937858E-1,1.7510763E-1,4.466294E-2,2.2646403E-1,-4.0947054E-2,-4.6723187E-3,2.4651209E-1,4.4215493E-2,1.731631E-2],"categories":[],"categories_nodes":[],"categories_segments":[],"categories_sizes":[],"default_left":[0,0,0,0,0,0,0,0,0,0,0,0,0],"id":25,"left_children":[1,3,-1,-1,5,7,-1,9,-1,-1,11,-1,-1],"loss_changes":[8.5105295E0,1.0191083E1,0E0,0E0,3.2302034E-1,9.595553E-1,0E0,1.6040826E-1,0E0,0E0,2.8916502E-1,0E0,0E0],"parents":[2147483647,0,0,1,1,4,4,5,5,7,7,10,10],"right_children":[2,4,-1,-1,6,8,-1,10,-1,-1,12,-1,-1],"split_conditions":[1E0,1E0,5.4922044E-2,-5.3489573E-2,3.86262E-1,2.8314018E-1,4.466294E-2,1.7799338E-2,-4.0947054E-2,-4.6723187E-3,1.027333E-1,4.4215493E-2,1.731631E-2],"split_indices":[1,2,0,0,0,0,0,0,0,0,0,0,0],"split_type":[0,0,0,0,0,0,0,0,0,0,0,0,0],"sum_hessian":[8.895987E1,6.802926E1,2.0930609E1,3.4999187E1,3.303007E1,2.7873156E1,5.1569157E0,2.6185324E1,1.6878325E0,1.699282E0,2.4486042E1,5.305813E0,1.918023E1],"tree_param":{"num_deleted":"0","num_feature":"6","num_nodes":"13","size_leaf_vector":"1"}},{"base_weights":[-4.646914E-2,-2.5839254E-1,3.4163997E-1,-3.934562E-1,-4.6754867E-2,3.7577856E-1,-2.8784735E-2,-4.880253E-2,-2.5993657E-1,3.4572443E-3,-3.6567982E-2,4.6474796E-2,4.1895854E-1,-5.1348984E-2,-4.0502608E-2,-1.3924605E-1,3.0138273E-2,2.5830692E-2,-2.8935835E-2,4.4685658E-2,2.310921E-2,6.951534E-2,-3.201213E-2,1.533782E-2,-3.0703446E-1,-1.5064047E-3,2.067376E-2,1.0503004E-2,-2.8678292E-2,-4.165481E-2,-5.5140126E-3],"categories":[],"categories_nodes":[],"categories_segments":[],"categories_sizes":[],"default_left":[0,0,0,0,0,0,0,0,0,0,0,0,0,0,0,0,0,0,0,0,0,0,0,0,0,0,0,0,0,0,0],"id":26,"left_children":[1,3,5,7,9,11,-1,-1,13,15,-1,17,19,21,-1,23,-1,-1,-1,-1,-1,25,-1,27,29,-1,-1,-1,-1,-1,-1],"loss_changes":[6.5261903E0,1.4450605E0,7.1150637E-1,2.6606274E-1,3.3883286E-1,3.6537647E-1,0E0,0E0,4.3441653E-1,8.5838E-1,0E0,3.7796277E-1,2.148819E-2,2.599034E-1,0E0,3.5921702E-1,0E0,0E0,0E0,0E0,0E0,7.121898E-2,0E0,2.486993E-1,1.591416E-1,0E0,0E0,0E0,0E0,0E0,0E0],"parents":[2147483647,0,0,1,1,2,2,3,3,4,4,5,5,8,8,9,9,11,11,12,12,13,13,15,15,21,21,23,23,24,24],"right_children":[2,4,6,8,10,12,-1,-1,14,16,-1,18,20,22,-1,24,-1,-1,-1,-1,-1,26,-1,28,30,-1,-1,-1,-1,-1,-1],"split_conditions":[1E0,2.6025778E-1,2E0,1.7424783E-1,4.2783013E-1,8.0614135E-2,-2.8784735E-2,-4.880253E-2,2.147962E-1,3.8876316E-1,-3.6567982E-2,2.2233797E-2,5E-1,5E-1,-4.0502608E-2,3.3027446E-1,3.0138273E-2,2.5830692E-2,-2.8935835E-2,4.4685658E-2,2.310921E-2,2.1048598E-1,-3.201213E-2,5E-1,3.7615526E-1,-1.5064047E-3,2.067376E-2,1.0503004E-2,-2.8678292E-2,-4.165481E-2,-5.5140126E-3],"split_indices":[3,0,3,0,0,0,0,0,0,0,0,0,5,5,0,0,0,0,0,0,0,0,0,5,0,0,0,0,0,0,0],"split_type":[0,0,0,0,0,0,0,0,0,0,0,0,0,0,0,0,0,0,0,0,0,0,0,0,0,0,0,0,0,0,0],"sum_hessian":[7.727307E1,5.0197445E1,2.7075624E1,3.0117716E1,2.0079731E1,2.6065094E1,1.010531E0,1.6076202E1,1.40415125E1,1.820298E1,1.87675E0,3.2622776E0,2.2802816E1,6.315689E0,7.725823E0,1.2667831E1,5.5351486E0,2.142015E0,1.1202626E0,1.865411E1,4.148706E0,4.8679695E0,1.4477196E0,7.066259E0,5.601573E0,3.562426E0,1.3055435E0,5.951702E0,1.1145567E0,3.4485974E0,2.1529753E0],"tree_param":{"num_deleted":"0","num_feature":"6","num_nodes":"31","size_leaf_vector":"1"}},{"base_weights":[-2.034535E-3,-1.4302991E-1,2.3201668E-1,-3.4961304E-1,1.4870508E-1,1.8307978E-1,4.805078E-2,-4.8092704E-2,-2.0862949E-1,2.2342622E-1,-1.1605435E-1,2.2587089E-1,-3.6710244E-2,-6.247982E-2,-2.9626453E-1,1.3960983E-1,4.2395897E-2,-2.4981957E-2,4.5843855E-3,2.7267405E-1,7.336029E-2,-1.6890578E-1,2.1046527E-2,-1.780604E-1,-3.6921296E-2,2.3506328E-1,-3.525754E-2,1.5845294E-1,3.799513E-1,-3.7674308E-2,2.970852E-2,-6.3529247E-3,-3.0799633E-2,-3.2238998E-2,2.5312422E-2,7.370735E-3,3.9549362E-2,3.4500774E-2,-2.0095468E-2,4.4814736E-2,1.9989634E-2],"categories":[],"categories_nodes":[],"categories_segments":[],"categories_sizes":[],"default_left":[0,0,0,0,0,0,0,0,0,0,0,0,0,0,0,0,0,0,0,0,0,0,0,0,0,0,0,0,0,0,0,0,0,0,0,0,0,0,0,0,0],"id":27,"left_children":[1,3,5,7,9,11,-1,-1,13,15,17,19,-1,21,23,25,-1,-1,-1,27,29,31,-1,33,-1,35,-1,37,39,-1,-1,-1,-1,-1,-1,-1,-1,-1,-1,-1,-1],"loss_changes":[2.7951949E0,3.2371547E0,2.99294E-1,4.779985E-1,4.7325194E-1,7.4735016E-1,0E0,0E0,1.9705904E-1,2.4295598E-1,1.3348594E-1,1.7132771E-1,0E0,2.5563276E-1,2.2681594E-2,7.4852437E-1,0E0,0E0,0E0,1.8660557E-1,8.83521E-1,6.845923E-2,0E0,4.4535014E-1,0E0,2.935751E-1,0E0,8.384379E-1,2.9173732E-2,0E0,0E0,0E0,0E0,0E0,0E0,0E0,0E0,0E0,0E0,0E0,0E0],"parents":[2147483647,0,0,1,1,2,2,3,3,4,4,5,5,8,8,9,9,10,10,11,11,13,13,14,14,15,15,19,19,20,20,21,21,23,23,25,25,27,27,28,28],"right_children":[2,4,6,8,10,12,-1,-1,14,16,18,20,-1,22,24,26,-1,-1,-1,28,30,32,-1,34,-1,36,-1,38,40,-1,-1,-1,-1,-1,-1,-1,-1,-1,-1,-1,-1],"split_conditions":[1E0,2.872278E-1,3.86262E-1,1.7424783E-1,5E-1,2.8314018E-1,4.805078E-2,-4.8092704E-2,2.147962E-1,4.729023E-1,3.7615526E-1,2.1364617E-1,-3.6710244E-2,2.1048598E-1,2.4803653E-1,4.2783013E-1,4.2395897E-2,-2.4981957E-2,4.5843855E-3,1.6104683E-1,2.4579668E-1,5E-1,2.1046527E-2,2.4376395E-1,-3.6921296E-2,3.8876316E-1,-3.525754E-2,1.027333E-1,1.704594E-1,-3.7674308E-2,2.970852E-2,-6.3529247E-3,-3.0799633E-2,-3.2238998E-2,2.5312422E-2,7.370735E-3,3.9549362E-2,3.4500774E-2,-2.0095468E-2,4.4814736E-2,1.9989634E-2],"split_indices":[2,0,0,0,5,0,0,0,0,0,0,0,0,0,0,0,0,0,0,0,0,5,0,0,0,0,0,0,0,0,0,0,0,0,0,0,0,0,0,0,0],"split_type":[0,0,0,0,0,0,0,0,0,0,0,0,0,0,0,0,0,0,0,0,0,0,0,0,0,0,0,0,0,0,0,0,0,0,0,0,0,0,0,0,0],"sum_hessian":[8.269691E1,5.1850445E1,3.084646E1,3.023914E1,2.1611305E1,2.722219E1,3.6242697E0,1.4408054E1,1.5831084E1,1.6976316E1,4.6349874E0,2.5804663E1,1.4175285E0,6.5764456E0,9.254639E0,1.3168493E1,3.807824E0,2.2406383E0,2.3943489E0,1.9142286E1,6.662377E0,5.0057797E0,1.5706661E0,4.8449264E0,4.409712E0,1.1467011E1,1.7014815E0,1.0470785E1,8.6715E0,1.984959E0,4.677418E0,3.676881E0,1.3288985E0,3.8189368E0,1.0259894E0,6.444632E0,5.0223794E0,6.919304E0,3.5514805E0,5.209462E0,3.4620385E0],"tree_param":{"num_deleted":"0","num_feature":"6","num_nodes":"41","size_leaf_vector":"1"}},{"base_weights":[9.164788E-3,-1.4936721E-1,5.3223114E-2,-5.2636277E-2,2.418679E-1,1.8926449E-1,4.385558E-2,2.461607E-1,-4.100779E-2,1.9905974E-1,3.92661E-2,2.655547E-2,-3.5447083E-2],"categories":[],"categories_nodes":[],"categories_segments":[],"categories_sizes":[],"default_left":[0,0,0,0,0,0,0,0,0,0,0,0,0],"id":28,"left_children":[1,3,-1,-1,5,7,-1,9,-1,11,-1,-1,-1],"loss_changes":[6.909824E0,9.565788E0,0E0,0E0,2.4899662E-1,1.0242612E0,0E0,9.678614E-2,0E0,8.749443E-1,0E0,0E0,0E0],"parents":[2147483647,0,0,1,1,4,4,5,5,7,7,9,9],"right_children":[2,4,-1,-1,6,8,-1,10,-1,12,-1,-1,-1],"split_conditions":[1E0,1E0,5.3223114E-2,-5.2636277E-2,3.86262E-1,2.7934256E-1,4.385558E-2,2.4579668E-1,-4.100779E-2,2.1364617E-1,3.92661E-2,2.655547E-2,-3.5447083E-2],"split_indices":[1,2,0,0,0,0,0,0,0,0,0,0,0],"split_type":[0,0,0,0,0,0,0,0,0,0,0,0,0],"sum_hessian":[8.136973E1,6.299233E1,1.8377401E1,3.1904068E1,3.1088263E1,2.607647E1,5.0117917E0,2.4353817E1,1.7226522E0,2.0213718E1,4.140098E0,1.8510347E1,1.7033722E0],"tree_param":{"num_deleted":"0","num_feature":"6","num_nodes":"13","size_leaf_vector":"1"}},{"base_weights":[-8.416661E-3,-1.9503514E-1,5.3077675E-2,-5.2374203E-2,2.9912552E-1,-3.737424E-2,3.805216E-1,4.3452468E-2,1.5728168E-1,3.410823E-3,3.3526387E-2,3.19447E-3,-2.2677898E-3],"categories":[],"categories_nodes":[],"categories_segments":[],"categories_sizes":[],"default_left":[0,0,0,0,0,0,0,0,0,0,0,0,0],"id":29,"left_children":[1,3,-1,-1,5,-1,7,-1,9,11,-1,-1,-1],"loss_changes":[7.9056277E0,9.63188E0,0E0,0E0,1.4532931E0,0E0,1.950798E-1,0E0,1.5834028E-1,3.8015288E-3,0E0,0E0,0E0],"parents":[2147483647,0,0,1,1,4,4,6,6,8,8,9,9],"right_children":[2,4,-1,-1,6,-1,8,-1,10,12,-1,-1,-1],"split_conditions":[1E0,1E0,5.3077675E-2,-5.2374203E-2,1E0,-3.737424E-2,2.5329456E-1,4.3452468E-2,3.3027446E-1,2.7086064E-1,3.3526387E-2,3.19447E-3,-2.2677898E-3],"split_indices":[1,3,0,0,2,0,0,0,0,0,0,0,0],"split_type":[0,0,0,0,0,0,0,0,0,0,0,0,0],"sum_hessian":[7.653766E1,5.7332706E1,1.9204954E1,3.439434E1,2.2938366E1,2.0877924E0,2.0850573E1,1.6027079E1,4.823495E0,3.133583E0,1.689912E0,1.3894467E0,1.7441363E0],"tree_param":{"num_deleted":"0","num_feature":"6","num_nodes":"13","size_leaf_vector":"1"}},{"base_weights":[-2.2555983E-3,-1.6191626E-1,5.229674E-2,-5.1927425E-2,3.1546065E-1,-3.7609823E-2,3.9677542E-1,4.4125088E-2,-2.856246E-2],"categories":[],"categories_nodes":[],"categories_segments":[],"categories_sizes":[],"default_left":[0,0,0,0,0,0,0,0,0],"id":30,"left_children":[1,3,-1,-1,5,-1,7,-1,-1],"loss_changes":[6.324123E0,1.0028183E1,0E0,0E0,1.5762687E0,0E0,8.299587E-1,0E0,0E0],"parents":[2147483647,0,0,1,1,4,4,6,6],"right_children":[2,4,-1,-1,6,-1,8,-1,-1],"split_conditions":[1E0,1E0,5.229674E-2,-5.1927425E-2,1E0,-3.7609823E-2,2E0,4.4125088E-2,-2.856246E-2],"split_indices":[1,3,0,0,2,0,3,0,0],"split_type":[0,0,0,0,0,0,0,0,0],"sum_hessian":[7.340539E1,5.682353E1,1.6581861E1,3.244664E1,2.4376884E1,2.1833024E0,2.2193583E1,2.1167381E1,1.0262008E0],"tree_param":{"num_deleted":"0","num_feature":"6","num_nodes":"9","size_leaf_vector":"1"}},{"base_weights":[4.2477692E-3,-1.5600713E-1,5.1321406E-2,-5.151529E-2,3.3053115E-1,1.2494574E-1,4.0894106E-2,2.4705945E-1,-3.0657092E-2,5.1494446E-3,3.689707E-2],"categories":[],"categories_nodes":[],"categories_segments":[],"categories_sizes":[],"default_left":[0,0,0,0,0,0,0,0,0,0,0],"id":31,"left_children":[1,3,-1,-1,5,7,-1,9,-1,-1,-1],"loss_changes":[5.875221E0,9.746449E0,0E0,0E0,3.3389616E-1,4.990822E-1,0E0,1.4349577E-1,0E0,0E0,0E0],"parents":[2147483647,0,0,1,1,4,4,5,5,7,7],"right_children":[2,4,-1,-1,6,8,-1,10,-1,-1,-1],"split_conditions":[1E0,1E0,5.1321406E-2,-5.151529E-2,1.4413233E-1,1.027333E-1,4.0894106E-2,8.0614135E-2,-3.0657092E-2,5.1494446E-3,3.689707E-2],"split_indices":[1,3,0,0,0,0,0,0,0,0,0],"split_type":[0,0,0,0,0,0,0,0,0,0,0],"sum_hessian":[7.005012E1,5.3803E1,1.624712E1,3.0920065E1,2.2882936E1,7.033935E0,1.5849001E1,5.8156443E0,1.2182906E0,2.779415E0,3.0362296E0],"tree_param":{"num_deleted":"0","num_feature":"6","num_nodes":"11","size_leaf_vector":"1"}},{"base_weights":[-1.4667639E-2,-1.639877E-1,5.1068068E-2,-5.1150687E-2,2.986701E-1,-3.620849E-2,3.7901312E-2],"categories":[],"categories_nodes":[],"categories_segments":[],"categories_sizes":[],"default_left":[0,0,0,0,0,0,0],"id":32,"left_children":[1,3,-1,-1,5,-1,-1],"loss_changes":[5.256721E0,8.530492E0,0E0,0E0,1.3572702E0,0E0,0E0],"parents":[2147483647,0,0,1,1,4,4],"right_children":[2,4,-1,-1,6,-1,-1],"split_conditions":[1E0,1E0,5.1068068E-2,-5.1150687E-2,1E0,-3.620849E-2,3.7901312E-2],"split_indices":[1,3,0,0,2,0,0],"split_type":[0,0,0,0,0,0,0],"sum_hessian":[6.4943954E1,5.110593E1,1.383802E1,2.9124142E1,2.1981789E1,2.0028946E0,1.9978895E1],"tree_param":{"num_deleted":"0","num_feature":"6","num_nodes":"7","size_leaf_vector":"1"}},{"base_weights":[1.0939719E-2,-1.5473792E-1,5.1081188E-2,-5.0783332E-2,3.1059352E-1,-3.5178896E-2,3.8994323E-2],"categories":[],"categories_nodes":[],"categories_segments":[],"categories_sizes":[],"default_left":[0,0,0,0,0,0,0],"id":33,"left_children":[1,3,-1,-1,5,-1,-1],"loss_changes":[5.4502826E0,8.28742E0,0E0,0E0,1.2917736E0,0E0,0E0],"parents":[2147483647,0,0,1,1,4,4],"right_children":[2,4,-1,-1,6,-1,-1],"split_conditions":[1E0,1E0,5.1081188E-2,-5.0783332E-2,1E0,-3.5178896E-2,3.8994323E-2],"split_indices":[1,3,0,0,2,0,0],"split_type":[0,0,0,0,0,0,0],"sum_hessian":[6.3856243E1,4.8478855E1,1.5377388E1,2.7511604E1,2.0967253E1,1.8757532E0,1.90915E1],"tree_param":{"num_deleted":"0","num_feature":"6","num_nodes":"7","size_leaf_vector":"1"}},{"base_weights":[-7.3272632E-3,-1.4756145E-1,5.0769877E-2,-5.0272226E-2,2.0641786E-1,1.5436043E-1,4.0178943E-2,2.1021189E-1,-3.6882024E-2,2.4606088E-1,5.5577945E-2,1.2450241E-2,3.5726853E-2,-3.0420044E-2,2.7026102E-2],"categories":[],"categories_nodes":[],"categories_segments":[],"categories_sizes":[],"default_left":[0,0,0,0,0,0,0,0,0,0,0,0,0,0,0],"id":34,"left_children":[1,3,-1,-1,5,7,-1,9,-1,11,13,-1,-1,-1,-1],"loss_changes":[4.449271E0,6.185972E0,0E0,0E0,1.9162047E-1,7.003832E-1,0E0,9.662068E-2,0E0,1.6992211E-1,4.7121084E-1,0E0,0E0,0E0,0E0],"parents":[2147483647,0,0,1,1,4,4,5,5,7,7,9,9,10,10],"right_children":[2,4,-1,-1,6,8,-1,10,-1,12,14,-1,-1,-1,-1],"split_conditions":[1E0,1E0,5.0769877E-2,-5.0272226E-2,3.86262E-1,2.7086064E-1,4.0178943E-2,2.1364617E-1,-3.6882024E-2,1.6104683E-1,2.4579668E-1,1.2450241E-2,3.5726853E-2,-3.0420044E-2,2.7026102E-2],"split_indices":[1,2,0,0,0,0,0,0,0,0,0,0,0,0,0],"split_type":[0,0,0,0,0,0,0,0,0,0,0,0,0,0,0],"sum_hessian":[5.9566277E1,4.7379112E1,1.2187164E1,2.3440336E1,2.3938776E1,2.031568E1,3.623098E0,1.88966E1,1.4190776E0,1.4860276E1,4.036325E0,8.112376E0,6.7479E0,1.3525943E0,2.6837308E0],"tree_param":{"num_deleted":"0","num_feature":"6","num_nodes":"15","size_leaf_vector":"1"}},{"base_weights":[1.6846644E-2,-1.3359612E-1,5.0073236E-2,-4.9861845E-2,2.0517822E-1,1.5157545E-2,3.332902E-2],"categories":[],"categories_nodes":[],"categories_segments":[],"categories_sizes":[],"default_left":[0,0,0,0,0,0,0],"id":35,"left_children":[1,3,-1,-1,5,-1,-1],"loss_changes":[4.3641105E0,5.768335E0,0E0,0E0,1.1753833E-1,0E0,0E0],"parents":[2147483647,0,0,1,1,4,4],"right_children":[2,4,-1,-1,6,-1,-1],"split_conditions":[1E0,1E0,5.0073236E-2,-4.9861845E-2,5E-1,1.5157545E-2,3.332902E-2],"split_indices":[1,2,0,0,5,0,0],"split_type":[0,0,0,0,0,0,0],"sum_hessian":[5.803002E1,4.4819347E1,1.3210674E1,2.134679E1,2.3472555E1,1.8087708E1,5.3848486E0],"tree_param":{"num_deleted":"0","num_feature":"6","num_nodes":"7","size_leaf_vector":"1"}},{"base_weights":[2.2881428E-2,-1.3593625E-1,5.0198305E-2,-4.992073E-2,3.0850878E-1,-3.2918405E-2,3.8177162E-2],"categories":[],"categories_nodes":[],"categories_segments":[],"categories_sizes":[],"default_left":[0,0,0,0,0,0,0],"id":36,"left_children":[1,3,-1,-1,5,-1,-1],"loss_changes":[4.393338E0,7.173619E0,0E0,0E0,1.0680958E0,0E0,0E0],"parents":[2147483647,0,0,1,1,4,4],"right_children":[2,4,-1,-1,6,-1,-1],"split_conditions":[1E0,1E0,5.0198305E-2,-4.992073E-2,1E0,-3.2918405E-2,3.8177162E-2],"split_indices":[1,3,0,0,2,0,0],"split_type":[0,0,0,0,0,0,0],"sum_hessian":[5.5842052E1,4.2477448E1,1.3364606E1,2.3305378E1,1.917207E1,1.615683E0,1.7556387E1],"tree_param":{"num_deleted":"0","num_feature":"6","num_nodes":"7","size_leaf_vector":"1"}},{"base_weights":[1.0483355E-2,-1.4811969E-1,4.9795337E-2,-4.9638066E-2,2.8117493E-1,-3.2248013E-2,3.5332303E-2],"categories":[],"categories_nodes":[],"categories_segments":[],"categories_sizes":[],"default_left":[0,0,0,0,0,0,0],"id":37,"left_children":[1,3,-1,-1,5,-1,-1],"loss_changes":[4.195854E0,6.2691045E0,0E0,0E0,9.4149387E-1,0E0,0E0],"parents":[2147483647,0,0,1,1,4,4],"right_children":[2,4,-1,-1,6,-1,-1],"split_conditions":[1E0,1E0,4.9795337E-2,-4.9638066E-2,1E0,-3.2248013E-2,3.5332303E-2],"split_indices":[1,3,0,0,2,0,0],"split_type":[0,0,0,0,0,0,0],"sum_hessian":[5.2316166E1,3.9998436E1,1.2317729E1,2.1997175E1,1.800126E1,1.5513766E0,1.6449883E1],"tree_param":{"num_deleted":"0","num_feature":"6","num_nodes":"7","size_leaf_vector":"1"}},{"base_weights":[-3.3821087E-2,-1.907318E-1,1.7636228E-1,-4.213677E-2,-3.3345636E-2,6.738802E-2,4.5668896E-2,1.2945246E-2,-2.2692455E-2,1.1926299E-1,-3.2086503E-2,-8.956638E-2,1.12430006E-1,2.8253335E-1,3.123811E-2,1.8269816E-2,-1.9143277E-1,3.0201232E-2,-6.2605185E-3,6.1699934E-3,3.6577605E-2,-3.33481E-2,1.3137333E-1,-9.206599E-3,-2.3857383E-2,-2.4429046E-2,1.279921E-2,5.332993E-3,2.4662944E-2],"categories":[],"categories_nodes":[],"categories_segments":[],"categories_sizes":[],"default_left":[0,0,0,0,0,0,0,0,0,0,0,0,0,0,0,0,0,0,0,0,0,0,0,0,0,0,0,0,0],"id":38,"left_children":[1,3,5,-1,7,9,-1,11,-1,13,-1,15,17,19,21,-1,23,-1,25,-1,-1,-1,27,-1,-1,-1,-1,-1,-1],"loss_changes":[1.5567364E0,9.63212E-1,5.8812904E-1,0E0,1.5606621E-1,3.5571808E-1,0E0,1.6035992E-1,0E0,2.0147778E-1,0E0,2.5170738E-1,1.8015245E-1,6.937143E-2,4.3208972E-1,0E0,6.96148E-3,0E0,2.1826452E-1,0E0,0E0,0E0,6.833114E-2,0E0,0E0,0E0,0E0,0E0,0E0],"parents":[2147483647,0,0,1,1,2,2,4,4,5,5,7,7,9,9,11,11,12,12,13,13,14,14,16,16,18,18,22,22],"right_children":[2,4,6,-1,8,10,-1,12,-1,14,-1,16,18,20,22,-1,24,-1,26,-1,-1,-1,28,-1,-1,-1,-1,-1,-1],"split_conditions":[1E0,1.995428E-1,3.86262E-1,-4.213677E-2,5E-1,2.7086064E-1,4.5668896E-2,2.872278E-1,-2.2692455E-2,1.027333E-1,-3.2086503E-2,2.1196763E-1,3.3027446E-1,8.422659E-2,1.4147602E-1,1.8269816E-2,2.4803653E-1,3.0201232E-2,3.8876316E-1,6.1699934E-3,3.6577605E-2,-3.33481E-2,2.4579668E-1,-9.206599E-3,-2.3857383E-2,-2.4429046E-2,1.279921E-2,5.332993E-3,2.4662944E-2],"split_indices":[2,0,0,0,5,0,0,0,0,0,0,0,0,0,0,0,0,0,0,0,0,0,0,0,0,0,0,0,0],"split_type":[0,0,0,0,0,0,0,0,0,0,0,0,0,0,0,0,0,0,0,0,0,0,0,0,0,0,0,0,0],"sum_hessian":[4.518246E1,2.5922655E1,1.9259806E1,9.834197E0,1.6088457E1,1.4761721E1,4.498084E0,1.3736702E1,2.3517559E0,1.3633018E1,1.1287031E0,6.814532E0,6.9221697E0,4.001414E0,9.631603E0,1.6393727E0,5.1751595E0,2.0704844E0,4.8516855E0,1.5720772E0,2.429337E0,1.5727875E0,8.058816E0,2.6153514E0,2.5598078E0,1.4540397E0,3.3976457E0,5.6772714E0,2.3815448E0],"tree_param":{"num_deleted":"0","num_feature":"6","num_nodes":"29","size_leaf_vector":"1"}},{"base_weights":[6.134505E-3,-1.4048274E-1,4.91237E-2,-4.8839144E-2,1.6638209E-1,1.0954153E-2,3.0717587E-2],"categories":[],"categories_nodes":[],"categories_segments":[],"categories_sizes":[],"default_left":[0,0,0,0,0,0,0],"id":39,"left_children":[1,3,-1,-1,5,-1,-1],"loss_changes":[3.5784142E0,4.2094436E0,0E0,0E0,1.3674384E-1,0E0,0E0],"parents":[2147483647,0,0,1,1,4,4],"right_children":[2,4,-1,-1,6,-1,-1],"split_conditions":[1E0,1E0,4.91237E-2,-4.8839144E-2,5E-1,1.0954153E-2,3.0717587E-2],"split_indices":[1,2,0,0,5,0,0],"split_type":[0,0,0,0,0,0,0],"sum_hessian":[4.834178E1,3.7667557E1,1.0674226E1,1.7375965E1,2.0291592E1,1.5722294E1,4.5692973E0],"tree_param":{"num_deleted":"0","num_feature":"6","num_nodes":"7","size_leaf_vector":"1"}},{"base_weights":[1.7521411E-2,-1.630451E-1,3.0721846E-1,-3.123004E-1,9.9377714E-2,-2.9144306E-2,3.666119E-2,-4.226987E-2,-1.8453223E-1,1.3136123E-2,3.342429E-2,4.3957476E-3,-2.8093306E-2,2.3693716E-2,-8.367537E-2,-1.1234467E-2,1.3931759E-2,-2.3440987E-2,2.2699257E-2,1.4399424E-2,-1.2429986E-2],"categories":[],"categories_nodes":[],"categories_segments":[],"categories_sizes":[],"default_left":[0,0,0,0,0,0,0,0,0,0,0,0,0,0,0,0,0,0,0,0,0],"id":40,"left_children":[1,3,5,7,9,-1,-1,-1,11,13,-1,15,-1,-1,17,-1,-1,-1,19,-1,-1],"loss_changes":[2.5595715E0,1.2141662E0,7.741399E-1,1.9700348E-1,2.3279902E-1,0E0,0E0,0E0,1.9815329E-1,2.2795328E-1,0E0,8.869683E-2,0E0,0E0,1.2468642E-1,0E0,0E0,0E0,1.1197269E-1,0E0,0E0],"parents":[2147483647,0,0,1,1,2,2,3,3,4,4,8,8,9,9,11,11,14,14,18,18],"right_children":[2,4,6,8,10,-1,-1,-1,12,14,-1,16,-1,-1,18,-1,-1,-1,20,-1,-1],"split_conditions":[1E0,2.872278E-1,1E0,1.7424783E-1,4.729023E-1,-2.9144306E-2,3.666119E-2,-4.226987E-2,2.147962E-1,3.1269753E-1,3.342429E-2,2.054695E-1,-2.8093306E-2,2.3693716E-2,3.7615526E-1,-1.1234467E-2,1.3931759E-2,-2.3440987E-2,3.9773628E-1,1.4399424E-2,-1.2429986E-2],"split_indices":[3,0,2,0,0,0,0,0,0,0,0,0,0,0,0,0,0,0,0,0,0],"split_type":[0,0,0,0,0,0,0,0,0,0,0,0,0,0,0,0,0,0,0,0,0],"sum_hessian":[4.6973637E1,2.920655E1,1.7767086E1,1.8496458E1,1.07100935E1,1.2509574E0,1.6516129E1,8.6843815E0,9.812077E0,8.605952E0,2.1041415E0,3.6375484E0,6.1745276E0,2.1615794E0,6.4443727E0,2.0398843E0,1.5976641E0,2.168272E0,4.2761006E0,2.354088E0,1.9220128E0],"tree_param":{"num_deleted":"0","num_feature":"6","num_nodes":"21","size_leaf_vector":"1"}},{"base_weights":[-1.0358967E-2,-1.4407845E-1,4.8392795E-2,-4.892784E-2,2.6205373E-1,3.1651124E-1,-2.8498376E-2,5.1205675E-3,3.4825087E-1,4.085888E-2,1.8346485E-1,-1.0041304E-2,3.6907364E-2],"categories":[],"categories_nodes":[],"categories_segments":[],"categories_sizes":[],"default_left":[0,0,0,0,0,0,0,0,0,0,0,0,0],"id":41,"left_children":[1,3,-1,-1,5,7,-1,-1,9,-1,11,-1,-1],"loss_changes":[2.998474E0,5.125719E0,0E0,0E0,5.974978E-1,1.16570115E-1,0E0,0E0,6.506479E-2,0E0,3.3157337E-1,0E0,0E0],"parents":[2147483647,0,0,1,1,4,4,5,5,8,8,10,10],"right_children":[2,4,-1,-1,6,8,-1,-1,10,-1,12,-1,-1],"split_conditions":[1E0,1E0,4.8392795E-2,-4.892784E-2,2E0,8.0614135E-2,-2.8498376E-2,5.1205675E-3,2.5329456E-1,4.085888E-2,3.3142358E-1,-1.0041304E-2,3.6907364E-2],"split_indices":[1,3,0,0,3,0,0,0,0,0,0,0,0],"split_type":[0,0,0,0,0,0,0,0,0,0,0,0,0],"sum_hessian":[4.3310696E1,3.464633E1,8.664363E0,1.8617392E1,1.602894E1,1.4960984E1,1.0679556E0,1.8778332E0,1.3083151E1,8.493623E0,4.589529E0,1.9959087E0,2.59362E0],"tree_param":{"num_deleted":"0","num_feature":"6","num_nodes":"13","size_leaf_vector":"1"}},{"base_weights":[-6.360572E-3,-1.7431608E-1,4.8275605E-2,-4.8585422E-2,2.3295559E-1,-2.9589862E-2,3.0897596E-1,3.8282506E-2,-2.7855141E-2],"categories":[],"categories_nodes":[],"categories_segments":[],"categories_sizes":[],"default_left":[0,0,0,0,0,0,0,0,0],"id":42,"left_children":[1,3,-1,-1,5,-1,7,-1,-1],"loss_changes":[3.4797184E0,4.110318E0,0E0,0E0,6.675294E-1,0E0,6.714604E-1,0E0,0E0],"parents":[2147483647,0,0,1,1,4,4,6,6],"right_children":[2,4,-1,-1,6,-1,8,-1,-1],"split_conditions":[1E0,1E0,4.8275605E-2,-4.8585422E-2,1E0,-2.9589862E-2,2E0,3.8282506E-2,-2.7855141E-2],"split_indices":[1,3,0,0,2,0,3,0,0],"split_type":[0,0,0,0,0,0,0,0,0],"sum_hessian":[4.033382E1,3.0503109E1,9.830712E0,1.7173485E1,1.3329624E1,1.3117508E0,1.2017873E1,1.0985471E1,1.032402E0],"tree_param":{"num_deleted":"0","num_feature":"6","num_nodes":"9","size_leaf_vector":"1"}},{"base_weights":[-1.2648541E-2,-1.3747951E-1,4.718038E-2,-4.7868233E-2,1.676352E-1,1.1546752E-2,2.8351245E-2],"categories":[],"categories_nodes":[],"categories_segments":[],"categories_sizes":[],"default_left":[0,0,0,0,0,0,0],"id":43,"left_children":[1,3,-1,-1,5,-1,-1],"loss_changes":[2.4075296E0,3.367457E0,0E0,0E0,7.250774E-2,0E0,0E0],"parents":[2147483647,0,0,1,1,4,4],"right_children":[2,4,-1,-1,6,-1,-1],"split_conditions":[1E0,1E0,4.718038E-2,-4.7868233E-2,5E-1,1.1546752E-2,2.8351245E-2],"split_indices":[1,2,0,0,5,0,0],"split_type":[0,0,0,0,0,0,0],"sum_hessian":[3.773798E1,3.0575636E1,7.162342E0,1.4165652E1,1.6409985E1,1.2692369E1,3.7176142E0],"tree_param":{"num_deleted":"0","num_feature":"6","num_nodes":"7","size_leaf_vector":"1"}},{"base_weights":[-8.738981E-3,-2.2404636E-1,2.9340614E-2,-4.8080403E-2,4.3625418E-2],"categories":[],"categories_nodes":[],"categories_segments":[],"categories_sizes":[],"default_left":[0,0,0,0,0],"id":44,"left_children":[1,3,-1,-1,-1],"loss_changes":[2.449343E0,3.9330733E0,0E0,0E0,0E0],"parents":[2147483647,0,0,1,1],"right_children":[2,4,-1,-1,-1],"split_conditions":[1E0,1E0,2.9340614E-2,-4.8080403E-2,4.3625418E-2],"split_indices":[3,1,0,0,0],"split_type":[0,0,0,0,0],"sum_hessian":[3.5640385E1,2.0961668E1,1.4678719E1,1.5288557E1,5.6731105E0],"tree_param":{"num_deleted":"0","num_feature":"6","num_nodes":"5","size_leaf_vector":"1"}},{"base_weights":[1.565945E-2,-1.8092011E-1,2.935533E-1,-2.815264E-1,1.4461648E-1,-2.7944619E-2,3.598554E-2,-4.01383E-2,-1.7198996E-1,1.939897E-2,2.9764447E-2,-1.5473243E-2,-2.1789815E-1,1.1340306E-2,-9.542706E-3,-1.0443986E-2,9.1713965E-3,-2.6219085E-2,-8.565758E-2,1.1754441E-2,-2.7165899E-2],"categories":[],"categories_nodes":[],"categories_segments":[],"categories_sizes":[],"default_left":[0,0,0,0,0,0,0,0,0,0,0,0,0,0,0,0,0,0,0,0,0],"id":45,"left_children":[1,3,5,7,9,-1,-1,-1,11,13,-1,15,17,-1,-1,-1,-1,-1,19,-1,-1],"loss_changes":[2.037006E0,7.5759256E-1,6.866698E-1,1.5494764E-1,1.0590591E-1,0E0,0E0,0E0,7.32519E-2,5.6967817E-2,0E0,4.2906158E-2,2.5388926E-2,0E0,0E0,0E0,0E0,0E0,1.6553342E-1,0E0,0E0],"parents":[2147483647,0,0,1,1,2,2,3,3,4,4,8,8,9,9,11,11,12,12,18,18],"right_children":[2,4,6,8,10,-1,-1,-1,12,14,-1,16,18,-1,-1,-1,-1,-1,20,-1,-1],"split_conditions":[1E0,3.7615526E-1,1E0,1.7424783E-1,4.729023E-1,-2.7944619E-2,3.598554E-2,-4.01383E-2,2.1196763E-1,3.9773628E-1,2.9764447E-2,1.995428E-1,2.872278E-1,1.1340306E-2,-9.542706E-3,-1.0443986E-2,9.1713965E-3,-2.6219085E-2,3.3027446E-1,1.1754441E-2,-2.7165899E-2],"split_indices":[3,0,2,0,0,0,0,0,0,0,0,0,0,0,0,0,0,0,0,0,0],"split_type":[0,0,0,0,0,0,0,0,0,0,0,0,0,0,0,0,0,0,0,0,0],"sum_hessian":[3.5316307E1,2.0888754E1,1.4427553E1,1.6060492E1,4.8282623E0,1.1628839E0,1.3264669E1,6.396716E0,9.663775E0,3.2751157E0,1.5531465E0,2.49489E0,7.168885E0,1.8076487E0,1.467467E0,1.3773253E0,1.1175646E0,4.634068E0,2.534817E0,1.3872863E0,1.1475308E0],"tree_param":{"num_deleted":"0","num_feature":"6","num_nodes":"21","size_leaf_vector":"1"}},{"base_weights":[-4.898506E-3,-1.6923583E-1,4.7229532E-2,-4.7110334E-2,1.2312958E-2],"categories":[],"categories_nodes":[],"categories_segments":[],"categories_sizes":[],"default_left":[0,0,0,0,0],"id":46,"left_children":[1,3,-1,-1,-1],"loss_changes":[2.7335742E0,2.3444035E0,0E0,0E0,0E0],"parents":[2147483647,0,0,1,1],"right_children":[2,4,-1,-1,-1],"split_conditions":[1E0,1E0,4.7229532E-2,-4.7110334E-2,1.2312958E-2],"split_indices":[1,2,0,0,0],"split_type":[0,0,0,0,0],"sum_hessian":[3.2838554E1,2.4906528E1,7.932026E0,1.19533415E1,1.2953186E1],"tree_param":{"num_deleted":"0","num_feature":"6","num_nodes":"5","size_leaf_vector":"1"}},{"base_weights":[-7.276204E-3,-1.6808063E-1,4.6842188E-2,-4.676203E-2,1.051213E-2],"categories":[],"categories_nodes":[],"categories_segments":[],"categories_sizes":[],"default_left":[0,0,0,0,0],"id":47,"left_children":[1,3,-1,-1,-1],"loss_changes":[2.5640225E0,2.0964692E0,0E0,0E0,0E0],"parents":[2147483647,0,0,1,1],"right_children":[2,4,-1,-1,-1],"split_conditions":[1E0,1E0,4.6842188E-2,-4.676203E-2,1.051213E-2],"split_indices":[1,2,0,0,0],"split_type":[0,0,0,0,0],"sum_hessian":[3.148985E1,2.4017624E1,7.4722247E0,1.111713E1,1.2900494E1],"tree_param":{"num_deleted":"0","num_feature":"6","num_nodes":"5","size_leaf_vector":"1"}},{"base_weights":[-2.1703605E-2,-9.146157E-2,2.9084355E-2,-2.2239289E-1,6.2637135E-2,-3.7369415E-2,-1.03149846E-1,2.6943547E-1,-4.2977925E-2,-1.4811622E-1,-6.491162E-5,3.2372195E-3,3.5284564E-2,-2.8514966E-2,2.776757E-2,-2.0481271E-3,-2.1156948E-2,1.6458733E-2,-1.7465994E-2,1.878376E-1,-1.2232125E-1,3.8765122E-3,2.8574297E-2,-2.2113859E-3,-1.6661633E-2],"categories":[],"categories_nodes":[],"categories_segments":[],"categories_sizes":[],"default_left":[0,0,0,0,0,0,0,0,0,0,0,0,0,0,0,0,0,0,0,0,0,0,0,0,0],"id":48,"left_children":[1,3,-1,5,7,-1,9,11,13,15,17,-1,-1,-1,19,-1,-1,-1,-1,21,23,-1,-1,-1,-1],"loss_changes":[6.797572E-1,5.23426E-1,0E0,2.1172833E-1,2.819729E-1,0E0,4.23538E-2,7.40543E-2,1.6309205E-1,4.719968E-2,1.3730323E-1,0E0,0E0,0E0,2.132722E-1,0E0,0E0,0E0,0E0,5.0621226E-2,1.7148398E-2,0E0,0E0,0E0,0E0],"parents":[2147483647,0,0,1,1,3,3,4,4,6,6,7,7,8,8,9,9,10,10,14,14,19,19,20,20],"right_children":[2,4,-1,6,8,-1,10,12,14,16,18,-1,-1,-1,20,-1,-1,-1,-1,22,24,-1,-1,-1,-1],"split_conditions":[3.8876316E-1,1E0,2.9084355E-2,1.7424783E-1,1.027333E-1,-3.7369415E-2,2.872278E-1,8.422659E-2,1.4147602E-1,2.147962E-1,3.3027446E-1,3.2372195E-3,3.5284564E-2,-2.8514966E-2,2.1364617E-1,-2.0481271E-3,-2.1156948E-2,1.6458733E-2,-1.7465994E-2,1.7247356E-1,2.5329456E-1,3.8765122E-3,2.8574297E-2,-2.2113859E-3,-1.6661633E-2],"split_indices":[0,2,0,0,0,0,0,0,0,0,0,0,0,0,0,0,0,0,0,0,0,0,0,0,0],"split_type":[0,0,0,0,0,0,0,0,0,0,0,0,0,0,0,0,0,0,0,0,0,0,0,0,0],"sum_hessian":[2.895765E1,2.4252138E1,4.7055116E0,1.2872078E1,1.1380059E1,4.7328835E0,8.1391945E0,3.3227937E0,8.057265E0,5.3629856E0,2.776209E0,1.2261146E0,2.096679E0,1.136438E0,6.9208274E0,2.2200923E0,3.1428936E0,1.4582875E0,1.3179216E0,3.2273464E0,3.693481E0,1.8327354E0,1.394611E0,1.5917509E0,2.10173E0],"tree_param":{"num_deleted":"0","num_feature":"6","num_nodes":"25","size_leaf_vector":"1"}},{"base_weights":[2.2544058E-2,-1.1936017E-1,4.5992907E-2,-4.7112644E-2,2.4383198E-1,3.1418985E-1,-2.8076245E-2,3.964432E-3,3.4664387E-1,4.0634863E-2,1.555921E-1,-8.0344705E-3,3.168257E-2],"categories":[],"categories_nodes":[],"categories_segments":[],"categories_sizes":[],"default_left":[0,0,0,0,0,0,0,0,0,0,0,0,0],"id":49,"left_children":[1,3,-1,-1,5,7,-1,-1,9,-1,11,-1,-1],"loss_changes":[2.061955E0,3.3356285E0,0E0,0E0,5.7033527E-1,9.308541E-2,0E0,0E0,5.7605743E-2,0E0,1.8304563E-1,0E0,0E0],"parents":[2147483647,0,0,1,1,4,4,5,5,8,8,10,10],"right_children":[2,4,-1,-1,6,8,-1,-1,10,-1,12,-1,-1],"split_conditions":[1E0,1E0,4.5992907E-2,-4.7112644E-2,2E0,8.0614135E-2,-2.8076245E-2,3.964432E-3,2.5329456E-1,4.0634863E-2,3.3142358E-1,-8.0344705E-3,3.168257E-2],"split_indices":[1,3,0,0,3,0,0,0,0,0,0,0,0],"split_type":[0,0,0,0,0,0,0,0,0,0,0,0,0],"sum_hessian":[3.1337069E1,2.4209648E1,7.12742E0,1.2147308E1,1.206234E1,1.0989521E1,1.0728191E0,1.3965893E0,9.592932E0,6.4502797E0,3.142652E0,1.4794405E0,1.6632116E0],"tree_param":{"num_deleted":"0","num_feature":"6","num_nodes":"13","size_leaf_vector":"1"}},{"base_weights":[8.567865E-3,-1.9293797E-1,2.7284837E-1,-4.67122E-2,4.198798E-2,9.932108E-2,3.4778696E-2,2.498743E-1,-2.6961735E-2,4.482703E-3,3.270697E-2],"categories":[],"categories_nodes":[],"categories_segments":[],"categories_sizes":[],"default_left":[0,0,0,0,0,0,0,0,0,0,0],"id":50,"left_children":[1,3,5,-1,-1,7,-1,9,-1,-1,-1],"loss_changes":[1.5810281E0,3.0306606E0,1.3229984E-1,0E0,0E0,3.6005807E-1,0E0,5.2788913E-2,0E0,0E0,0E0],"parents":[2147483647,0,0,1,1,2,2,5,5,7,7],"right_children":[2,4,6,-1,-1,8,-1,10,-1,-1,-1],"split_conditions":[1E0,1E0,1.4413233E-1,-4.67122E-2,4.198798E-2,1.027333E-1,3.4778696E-2,8.0614135E-2,-2.6961735E-2,4.482703E-3,3.270697E-2],"split_indices":[3,1,0,0,0,0,0,0,0,0,0],"split_type":[0,0,0,0,0,0,0,0,0,0,0],"sum_hessian":[2.769988E1,1.5869681E1,1.1830198E1,1.1128408E1,4.7412724E0,4.269391E0,7.5608077E0,3.261278E0,1.0081133E0,1.3243142E0,1.9369636E0],"tree_param":{"num_deleted":"0","num_feature":"6","num_nodes":"11","size_leaf_vector":"1"}},{"base_weights":[1.466064E-2,-1.2430872E-1,4.534268E-2,-4.6476703E-2,2.3563558E-2],"categories":[],"categories_nodes":[],"categories_segments":[],"categories_sizes":[],"default_left":[0,0,0,0,0],"id":51,"left_children":[1,3,-1,-1,-1],"loss_changes":[1.7588139E0,2.8042092E0,0E0,0E0,0E0],"parents":[2147483647,0,0,1,1],"right_children":[2,4,-1,-1,-1],"split_conditions":[1E0,1E0,4.534268E-2,-4.6476703E-2,2.3563558E-2],"split_indices":[1,3,0,0,0],"split_type":[0,0,0,0,0],"sum_hessian":[2.6920422E1,2.0989237E1,5.9311857E0,1.06369295E1,1.0352307E1],"tree_param":{"num_deleted":"0","num_feature":"6","num_nodes":"5","size_leaf_vector":"1"}},{"base_weights":[-6.0444325E-3,-1.5622185E-1,4.5002263E-2,-4.524074E-2,9.3215294E-2,1.7026265E-1,-7.65918E-2,5.9498623E-2,2.798903E-2,-1.278939E-2,-2.147903E-2,2.4490088E-1,-2.3044245E-2,6.486463E-3,-9.821955E-3,3.1074765E-3,3.1600963E-2],"categories":[],"categories_nodes":[],"categories_segments":[],"categories_sizes":[],"default_left":[0,0,0,0,0,0,0,0,0,0,0,0,0,0,0,0,0],"id":52,"left_children":[1,3,-1,-1,5,7,9,11,-1,-1,13,15,-1,-1,-1,-1,-1],"loss_changes":[1.8110759E0,1.5095983E0,0E0,0E0,1.6495283E-1,8.410126E-2,9.449776E-3,3.4657156E-1,0E0,0E0,2.8114384E-2,4.7608048E-2,0E0,0E0,0E0,0E0,0E0],"parents":[2147483647,0,0,1,1,4,4,5,5,6,6,7,7,10,10,11,11],"right_children":[2,4,-1,-1,6,8,10,12,-1,-1,14,16,-1,-1,-1,-1,-1],"split_conditions":[1E0,1E0,4.5002263E-2,-4.524074E-2,2.1364617E-1,1.4954872E-1,2.4710125E-1,1.027333E-1,2.798903E-2,-1.278939E-2,2.7086064E-1,8.422659E-2,-2.3044245E-2,6.486463E-3,-9.821955E-3,3.1074765E-3,3.1600963E-2],"split_indices":[1,2,0,0,0,0,0,0,0,0,0,0,0,0,0,0,0],"split_type":[0,0,0,0,0,0,0,0,0,0,0,0,0,0,0,0,0],"sum_hessian":[2.4416086E1,1.8862387E1,5.5536995E0,8.251141E0,1.0611246E1,7.2974553E0,3.3137908E0,4.3973036E0,2.9001517E0,1.0322905E0,2.2815003E0,2.7769382E0,1.6203654E0,1.1463982E0,1.1351022E0,1.0516372E0,1.7253011E0],"tree_param":{"num_deleted":"0","num_feature":"6","num_nodes":"17","size_leaf_vector":"1"}},{"base_weights":[1.82308E-2,-6.0190342E-2,3.039606E-1,-1.8943712E-1,7.723876E-2,1.37640685E-2,3.7833642E-2,-3.5435148E-2,-4.4329356E-2,1.6362725E-1,-1.1433605E-1,5.0043655E-3,-7.201162E-2,4.6587985E-2,2.7741505E-2,-3.4282827E-3,-1.4378758E-2,-1.3811047E-2,2.3123035E-2,2.2981161E-1,-2.1912616E-2,1.281248E-2,-9.7559495E-3,3.7516882E-3,2.9615745E-2],"categories":[],"categories_nodes":[],"categories_segments":[],"categories_sizes":[],"default_left":[0,0,0,0,0,0,0,0,0,0,0,0,0,0,0,0,0,0,0,0,0,0,0,0,0],"id":53,"left_children":[1,3,5,7,9,-1,-1,-1,11,13,15,-1,17,19,-1,-1,-1,-1,21,23,-1,-1,-1,-1,-1],"loss_changes":[5.816507E-1,3.798599E-1,1.6946495E-2,2.447998E-1,1.9539353E-1,0E0,0E0,0E0,2.1717928E-2,9.0544224E-2,4.2812154E-3,0E0,3.94845E-2,2.9532897E-1,0E0,0E0,0E0,0E0,5.333531E-2,3.3111423E-2,0E0,0E0,0E0,0E0,0E0],"parents":[2147483647,0,0,1,1,2,2,3,3,4,4,8,8,9,9,10,10,12,12,13,13,18,18,19,19],"right_children":[2,4,6,8,10,-1,-1,-1,12,14,16,-1,18,20,-1,-1,-1,-1,22,24,-1,-1,-1,-1,-1],"split_conditions":[3.8876316E-1,1E0,1E0,1.9502282E-1,2.1364617E-1,1.37640685E-2,3.7833642E-2,-3.5435148E-2,2.1196763E-1,1.6104683E-1,2.5329456E-1,5.0043655E-3,2.872278E-1,1.027333E-1,2.7741505E-2,-3.4282827E-3,-1.4378758E-2,-1.3811047E-2,3.3027446E-1,8.422659E-2,-2.1912616E-2,1.281248E-2,-9.7559495E-3,3.7516882E-3,2.9615745E-2],"split_indices":[0,2,2,0,0,0,0,0,0,0,0,0,0,0,0,0,0,0,0,0,0,0,0,0,0],"split_type":[0,0,0,0,0,0,0,0,0,0,0,0,0,0,0,0,0,0,0,0,0,0,0,0,0],"sum_hessian":[2.4141642E1,1.9562014E1,4.5796275E0,9.886091E0,9.675923E0,2.2959697E0,2.2836578E0,3.9523144E0,5.9337764E0,6.769277E0,2.9066458E0,1.1625798E0,4.771197E0,4.0317497E0,2.7375278E0,1.363772E0,1.5428736E0,2.548666E0,2.2225308E0,2.4662557E0,1.5654937E0,1.1555007E0,1.0670301E0,1.0342094E0,1.4320463E0],"tree_param":{"num_deleted":"0","num_feature":"6","num_nodes":"25","size_leaf_vector":"1"}},{"base_weights":[8.290367E-3,-1.821046E-1,2.5067133E-1,-2.4971107E-1,1.2582377E-2,7.3722534E-2,3.2710966E-2,-3.610238E-2,-1.4877267E-1,1.895924E-1,-1.3111072E-2,-5.390532E-4,-1.875295E-1,3.2042207E-3,2.6456306E-2,-2.5142122E-2,-8.2070634E-2,4.309907E-3,-1.9598454E-2],"categories":[],"categories_nodes":[],"categories_segments":[],"categories_sizes":[],"default_left":[0,0,0,0,0,0,0,0,0,0,0,0,0,0,0,0,0,0,0],"id":54,"left_children":[1,3,5,7,-1,9,-1,-1,11,13,-1,-1,15,-1,-1,-1,17,-1,-1],"loss_changes":[1.1420546E0,3.2048482E-1,1.2294966E-1,7.797998E-2,0E0,1.333451E-1,0E0,0E0,4.259914E-2,3.0835561E-2,0E0,0E0,2.0792112E-2,0E0,0E0,0E0,6.268907E-2,0E0,0E0],"parents":[2147483647,0,0,1,1,2,2,3,3,5,5,8,8,9,9,12,12,16,16],"right_children":[2,4,6,8,-1,10,-1,-1,12,14,-1,-1,16,-1,-1,-1,18,-1,-1],"split_conditions":[1E0,3.8876316E-1,1.3661973E-1,1.7424783E-1,1.2582377E-2,9.390607E-2,3.2710966E-2,-3.610238E-2,2.1196763E-1,8.0614135E-2,-1.3111072E-2,-5.390532E-4,2.6025778E-1,3.2042207E-3,2.6456306E-2,-2.5142122E-2,3.3027446E-1,4.309907E-3,-1.9598454E-2],"split_indices":[3,0,0,0,0,0,0,0,0,0,0,0,0,0,0,0,0,0,0],"split_type":[0,0,0,0,0,0,0,0,0,0,0,0,0,0,0,0,0,0,0],"sum_hessian":[2.2758419E1,1.2885384E1,9.8730345E0,1.0720689E1,2.1646938E0,3.5709743E0,6.3020606E0,3.8729773E0,6.847712E0,2.3283064E0,1.242668E0,1.6994877E0,5.1482244E0,1.2109343E0,1.117372E0,2.3440344E0,2.8041902E0,1.6322787E0,1.1719115E0],"tree_param":{"num_deleted":"0","num_feature":"6","num_nodes":"19","size_leaf_vector":"1"}},{"base_weights":[1.2288656E-2,-1.8942167E-1,2.6489591E-2,-1.255919E-1,-3.5280928E-2,-5.4480857E-3,-2.7871449E-2],"categories":[],"categories_nodes":[],"categories_segments":[],"categories_sizes":[],"default_left":[0,0,0,0,0,0,0],"id":55,"left_children":[1,3,-1,5,-1,-1,-1],"loss_changes":[1.2280492E0,9.581643E-2,0E0,1.06926575E-1,0E0,0E0,0E0],"parents":[2147483647,0,0,1,1,3,3],"right_children":[2,4,-1,6,-1,-1,-1],"split_conditions":[1E0,1E0,2.6489591E-2,5E-1,-3.5280928E-2,-5.4480857E-3,-2.7871449E-2],"split_indices":[3,2,0,5,0,0,0],"split_type":[0,0,0,0,0,0,0],"sum_hessian":[2.2116613E1,1.243624E1,9.680373E0,1.0214479E1,2.2217607E0,7.9010043E0,2.3134754E0],"tree_param":{"num_deleted":"0","num_feature":"6","num_nodes":"7","size_leaf_vector":"1"}},{"base_weights":[-1.9010957E-2,-1.5693879E-1,4.32701E-2,-4.5358133E-2,1.7749894E-2],"categories":[],"categories_nodes":[],"categories_segments":[],"categories_sizes":[],"default_left":[0,0,0,0,0],"id":56,"left_children":[1,3,-1,-1,-1],"loss_changes":[1.4211054E0,1.8040253E0,0E0,0E0,0E0],"parents":[2147483647,0,0,1,1],"right_children":[2,4,-1,-1,-1],"split_conditions":[1E0,1E0,4.32701E-2,-4.5358133E-2,1.7749894E-2],"split_indices":[1,3,0,0,0],"split_type":[0,0,0,0,0],"sum_hessian":[2.0719398E1,1.6372663E1,4.3467364E0,8.487815E0,7.884848E0],"tree_param":{"num_deleted":"0","num_feature":"6","num_nodes":"5","size_leaf_vector":"1"}},{"base_weights":[-1.4102238E-2,-1.5641752E-1,4.2941846E-2,-4.405512E-2,7.840273E-2,2.5428712E-2,-1.4088018E-2,-1.0200907E-1,2.5719339E-2,-2.6526792E-2,-2.1855278E-2,1.1703416E-2,-1.2431507E-2],"categories":[],"categories_nodes":[],"categories_segments":[],"categories_sizes":[],"default_left":[0,0,0,0,0,0,0,0,0,0,0,0,0],"id":57,"left_children":[1,3,-1,-1,5,-1,7,9,-1,-1,11,-1,-1],"loss_changes":[1.3999872E0,1.150047E0,0E0,0E0,1.6630563E-1,0E0,2.0519401E-1,7.7723525E-2,0E0,0E0,9.097622E-2,0E0,0E0],"parents":[2147483647,0,0,1,1,4,4,6,6,7,7,10,10],"right_children":[2,4,-1,-1,6,-1,8,10,-1,-1,12,-1,-1],"split_conditions":[1E0,1E0,4.2941846E-2,-4.405512E-2,9.390607E-2,2.5428712E-2,3.86262E-1,1.4147602E-1,2.5719339E-2,-2.6526792E-2,2.1364617E-1,1.1703416E-2,-1.2431507E-2],"split_indices":[1,2,0,0,0,0,0,0,0,0,0,0,0],"split_type":[0,0,0,0,0,0,0,0,0,0,0,0,0],"sum_hessian":[2.0115707E1,1.5719137E1,4.396571E0,6.716282E0,9.002855E0,2.499801E0,6.503054E0,5.382563E0,1.1204909E0,1.0119392E0,4.370624E0,1.7950703E0,2.5755537E0],"tree_param":{"num_deleted":"0","num_feature":"6","num_nodes":"13","size_leaf_vector":"1"}},{"base_weights":[1.124744E-2,-1.1645375E-1,4.2373873E-2,-4.3653037E-2,1.2377673E-1,7.793492E-3,2.1322956E-2],"categories":[],"categories_nodes":[],"categories_segments":[],"categories_sizes":[],"default_left":[0,0,0,0,0,0,0],"id":58,"left_children":[1,3,-1,-1,5,-1,-1],"loss_changes":[1.1352043E0,1.3247002E0,0E0,0E0,2.5287703E-2,0E0,0E0],"parents":[2147483647,0,0,1,1,4,4],"right_children":[2,4,-1,-1,6,-1,-1],"split_conditions":[1E0,1E0,4.2373873E-2,-4.3653037E-2,5E-1,7.793492E-3,2.1322956E-2],"split_indices":[1,2,0,0,5,0,0],"split_type":[0,0,0,0,0,0,0],"sum_hessian":[1.9614058E1,1.5525327E1,4.08873E0,6.306108E0,9.219219E0,7.3326855E0,1.8865337E0],"tree_param":{"num_deleted":"0","num_feature":"6","num_nodes":"7","size_leaf_vector":"1"}},{"base_weights":[1.0460439E-2,-5.913065E-2,2.7519578E-1,-1.7583206E-1,6.1494023E-2,1.143603E-2,3.33716E-2,-3.2593407E-2,-5.227968E-2,1.3338071E-1,-1.0091792E-2,-7.881464E-2,1.1176915E-3,1.3335742E-2,2.5045175E-2,-7.632258E-4,-1.0715361E-2,2.0806259E-2,-2.4455026E-2],"categories":[],"categories_nodes":[],"categories_segments":[],"categories_sizes":[],"default_left":[0,0,0,0,0,0,0,0,0,0,0,0,0,0,0,0,0,0,0],"id":59,"left_children":[1,3,5,7,9,-1,-1,-1,11,13,-1,15,-1,17,-1,-1,-1,-1,-1],"loss_changes":[3.826237E-1,2.4405906E-1,2.4593472E-3,1.439476E-1,1.1723668E-1,0E0,0E0,0E0,1.0903802E-2,8.930435E-2,0E0,7.8997165E-3,0E0,2.6736686E-1,0E0,0E0,0E0,0E0,0E0],"parents":[2147483647,0,0,1,1,2,2,3,3,4,4,8,8,9,9,11,11,13,13],"right_children":[2,4,6,8,10,-1,-1,-1,12,14,-1,16,-1,18,-1,-1,-1,-1,-1],"split_conditions":[3.8876316E-1,1E0,1E0,1.7424783E-1,2.1364617E-1,1.143603E-2,3.33716E-2,-3.2593407E-2,2.872278E-1,1.4954872E-1,-1.0091792E-2,2.1196763E-1,1.1176915E-3,9.390607E-2,2.5045175E-2,-7.632258E-4,-1.0715361E-2,2.0806259E-2,-2.4455026E-2],"split_indices":[0,2,2,0,0,0,0,0,0,0,0,0,0,0,0,0,0,0,0],"split_type":[0,0,0,0,0,0,0,0,0,0,0,0,0,0,0,0,0,0,0],"sum_hessian":[1.8885296E1,1.5569244E1,3.3160515E0,7.680688E0,7.8885565E0,1.6727927E0,1.6432587E0,2.7282066E0,4.9524813E0,5.5921245E0,2.2964323E0,3.321529E0,1.6309524E0,3.3109639E0,2.2811604E0,1.3072563E0,2.0142727E0,1.9965732E0,1.3143908E0],"tree_param":{"num_deleted":"0","num_feature":"6","num_nodes":"19","size_leaf_vector":"1"}},{"base_weights":[-5.333734E-3,-1.910189E-1,2.1052954E-1,-2.693384E-1,-2.0917404E-2,5.9229177E-3,2.675843E-2,-3.3687767E-2,-1.4214413E-1,8.424723E-3,-9.806163E-3,-2.31805E-3,-1.8501213E-2],"categories":[],"categories_nodes":[],"categories_segments":[],"categories_sizes":[],"default_left":[0,0,0,0,0,0,0,0,0,0,0,0,0],"id":60,"left_children":[1,3,5,7,9,-1,-1,-1,11,-1,-1,-1,-1],"loss_changes":[7.9696363E-1,1.3656273E-1,6.362215E-2,1.4176309E-2,4.4357575E-2,0E0,0E0,0E0,1.7311506E-2,0E0,0E0,0E0,0E0],"parents":[2147483647,0,0,1,1,2,2,3,3,4,4,8,8],"right_children":[2,4,6,8,10,-1,-1,-1,12,-1,-1,-1,-1],"split_conditions":[1E0,2.6025778E-1,1.4413233E-1,1.7424783E-1,3.3027446E-1,5.9229177E-3,2.675843E-2,-3.3687767E-2,2.1196763E-1,8.424723E-3,-9.806163E-3,-2.31805E-3,-1.8501213E-2],"split_indices":[3,0,0,0,0,0,0,0,0,0,0,0,0],"split_type":[0,0,0,0,0,0,0,0,0,0,0,0,0],"sum_hessian":[1.7879723E1,9.673603E0,8.2061205E0,6.224342E0,3.449261E0,2.8052213E0,5.4008994E0,2.9887886E0,3.2355533E0,1.4205977E0,2.0286632E0,1.2652049E0,1.9703482E0],"tree_param":{"num_deleted":"0","num_feature":"6","num_nodes":"13","size_leaf_vector":"1"}},{"base_weights":[-4.6133823E-3,-1.802815E-1,2.0924E-1,-2.9075736E-2,1.1189088E-2,6.3164264E-2,2.7102804E-2,-6.170388E-2,9.831961E-3,1.9221356E-2,-1.583547E-2,5.53781E-3,-1.5962182E-2],"categories":[],"categories_nodes":[],"categories_segments":[],"categories_sizes":[],"default_left":[0,0,0,0,0,0,0,0,0,0,0,0,0],"id":61,"left_children":[1,3,5,-1,7,9,-1,11,-1,-1,-1,-1,-1],"loss_changes":[7.4342453E-1,2.3277178E-1,6.352201E-2,0E0,3.7396546E-2,1.4363346E-1,0E0,4.667561E-2,0E0,0E0,0E0,0E0,0E0],"parents":[2147483647,0,0,1,1,2,2,4,4,5,5,7,7],"right_children":[2,4,6,-1,8,10,-1,12,-1,-1,-1,-1,-1],"split_conditions":[1E0,2.6025778E-1,1.4413233E-1,-2.9075736E-2,3.8876316E-1,8.523583E-2,2.7102804E-2,3.1269753E-1,9.831961E-3,1.9221356E-2,-1.583547E-2,5.53781E-3,-1.5962182E-2],"split_indices":[3,0,0,0,0,0,0,0,0,0,0,0,0],"split_type":[0,0,0,0,0,0,0,0,0,0,0,0,0],"sum_hessian":[1.7785059E1,9.850463E0,7.9345965E0,5.917563E0,3.9329E0,2.9597046E0,4.9748917E0,2.3003013E0,1.6325984E0,1.9537882E0,1.0059166E0,1.2454916E0,1.0548098E0],"tree_param":{"num_deleted":"0","num_feature":"6","num_nodes":"13","size_leaf_vector":"1"}},{"base_weights":[7.942808E-3,-1.1921196E-1,4.1047614E-2,-4.3843765E-2,1.8708782E-2],"categories":[],"categories_nodes":[],"categories_segments":[],"categories_sizes":[],"default_left":[0,0,0,0,0],"id":62,"left_children":[1,3,-1,-1,-1],"loss_changes":[9.89146E-1,1.5227518E0,0E0,0E0,0E0],"parents":[2147483647,0,0,1,1],"right_children":[2,4,-1,-1,-1],"split_conditions":[1E0,1E0,4.1047614E-2,-4.3843765E-2,1.8708782E-2],"split_indices":[1,3,0,0,0],"split_type":[0,0,0,0,0],"sum_hessian":[1.7369253E1,1.3734545E1,3.634709E0,6.5141234E0,7.220421E0],"tree_param":{"num_deleted":"0","num_feature":"6","num_nodes":"5","size_leaf_vector":"1"}},{"base_weights":[-2.0349994E-3,-1.3134111E-1,4.0540442E-2,-4.3337733E-2,1.55088855E-2],"categories":[],"categories_nodes":[],"categories_segments":[],"categories_sizes":[],"default_left":[0,0,0,0,0],"id":63,"left_children":[1,3,-1,-1,-1],"loss_changes":[9.6454966E-1,1.2684884E0,0E0,0E0,0E0],"parents":[2147483647,0,0,1,1],"right_children":[2,4,-1,-1,-1],"split_conditions":[1E0,1E0,4.0540442E-2,-4.3337733E-2,1.55088855E-2],"split_indices":[1,3,0,0,0],"split_type":[0,0,0,0,0],"sum_hessian":[1.6297401E1,1.2885626E1,3.4117756E0,6.0222354E0,6.86339E0],"tree_param":{"num_deleted":"0","num_feature":"6","num_nodes":"5","size_leaf_vector":"1"}},{"base_weights":[1.3230385E-2,-1.18595116E-1,4.0489696E-2,-4.286812E-2,1.7060926E-2],"categories":[],"categories_nodes":[],"categories_segments":[],"categories_sizes":[],"default_left":[0,0,0,0,0],"id":64,"left_children":[1,3,-1,-1,-1],"loss_changes":[8.998258E-1,1.2494254E0,0E0,0E0,0E0],"parents":[2147483647,0,0,1,1],"right_children":[2,4,-1,-1,-1],"split_conditions":[1E0,1E0,4.0489696E-2,-4.286812E-2,1.7060926E-2],"split_indices":[1,3,0,0,0],"split_type":[0,0,0,0,0],"sum_hessian":[1.5497771E1,1.2116765E1,3.3810065E0,5.6145477E0,6.5022173E0],"tree_param":{"num_deleted":"0","num_feature":"6","num_nodes":"5","size_leaf_vector":"1"}},{"base_weights":[-1.5724324E-2,-2.0208877E-1,1.8709116E-1,-1.3770044E-1,-2.9964942E-2,2.1207882E-2,1.3680769E-3,-7.516507E-3,-2.2860989E-2],"categories":[],"categories_nodes":[],"categories_segments":[],"categories_sizes":[],"default_left":[0,0,0,0,0,0,0,0,0],"id":65,"left_children":[1,3,5,7,-1,-1,-1,-1,-1],"loss_changes":[6.033465E-1,1.0739237E-2,3.0395001E-2,2.1685973E-2,0E0,0E0,0E0,0E0,0E0],"parents":[2147483647,0,0,1,1,2,2,3,3],"right_children":[2,4,6,8,-1,-1,-1,-1,-1],"split_conditions":[1E0,1E0,5E-1,5E-1,-2.9964942E-2,2.1207882E-2,1.3680769E-3,-7.516507E-3,-2.2860989E-2],"split_indices":[3,2,5,5,0,0,0,0,0],"split_type":[0,0,0,0,0,0,0,0,0],"sum_hessian":[1.3962261E1,7.278097E0,6.6841636E0,5.837128E0,1.440969E0,5.647409E0,1.0367546E0,4.5405555E0,1.2965729E0],"tree_param":{"num_deleted":"0","num_feature":"6","num_nodes":"9","size_leaf_vector":"1"}},{"base_weights":[-6.3966434E-3,-1.4467114E-1,3.9967816E-2,-4.2293187E-2,1.2135568E-2],"categories":[],"categories_nodes":[],"categories_segments":[],"categories_sizes":[],"default_left":[0,0,0,0,0],"id":66,"left_children":[1,3,-1,-1,-1],"loss_changes":[9.2008364E-1,9.5367825E-1,0E0,0E0,0E0],"parents":[2147483647,0,0,1,1],"right_children":[2,4,-1,-1,-1],"split_conditions":[1E0,1E0,3.9967816E-2,-4.2293187E-2,1.2135568E-2],"split_indices":[1,3,0,0,0],"split_type":[0,0,0,0,0],"sum_hessian":[1.4356455E1,1.1189871E1,3.166584E0,5.180902E0,6.0089684E0],"tree_param":{"num_deleted":"0","num_feature":"6","num_nodes":"5","size_leaf_vector":"1"}},{"base_weights":[-2.723955E-2,-1.7593996E-1,3.86282E-2,-4.167092E-2,9.886354E-2,1.8396715E-2,3.5293307E-3,-1.2902972E-2,1.0489187E-2],"categories":[],"categories_nodes":[],"categories_segments":[],"categories_sizes":[],"default_left":[0,0,0,0,0,0,0,0,0],"id":67,"left_children":[1,3,-1,-1,5,-1,7,-1,-1],"loss_changes":[8.843009E-1,7.327174E-1,0E0,0E0,4.5507718E-2,0E0,6.328705E-2,0E0,0E0],"parents":[2147483647,0,0,1,1,4,4,6,6],"right_children":[2,4,-1,-1,6,-1,8,-1,-1],"split_conditions":[1E0,1E0,3.86282E-2,-4.167092E-2,9.390607E-2,1.8396715E-2,1.7355035E-1,-1.2902972E-2,1.0489187E-2],"split_indices":[1,3,0,0,0,0,0,0,0],"split_type":[0,0,0,0,0,0,0,0,0],"sum_hessian":[1.2275779E1,9.4515705E0,2.8242083E0,4.7625074E0,4.6890626E0,1.986253E0,2.7028096E0,1.0529016E0,1.6499078E0],"tree_param":{"num_deleted":"0","num_feature":"6","num_nodes":"9","size_leaf_vector":"1"}},{"base_weights":[-2.7699178E-2,-2.0807663E-1,1.530707E-1,-2.8250476E-2,-1.0903702E-2,6.298512E-2,3.1576928E-2,1.9259365E-2,-5.41262E-2,-1.7869601E-2,5.192192E-3],"categories":[],"categories_nodes":[],"categories_segments":[],"categories_sizes":[],"default_left":[0,0,0,0,0,0,0,0,0,0,0],"id":68,"left_children":[1,3,5,-1,-1,7,-1,-1,9,-1,-1],"loss_changes":[4.689965E-1,2.178678E-2,8.669788E-2,0E0,0E0,1.00429416E-1,0E0,0E0,6.074142E-2,0E0,0E0],"parents":[2147483647,0,0,1,1,2,2,5,5,8,8],"right_children":[2,4,6,-1,-1,8,-1,-1,10,-1,-1],"split_conditions":[1E0,2.054695E-1,3.3027446E-1,-2.8250476E-2,-1.0903702E-2,9.390607E-2,3.1576928E-2,1.9259365E-2,1.6461904E-1,-1.7869601E-2,5.192192E-3],"split_indices":[3,0,0,0,0,0,0,0,0,0,0],"split_type":[0,0,0,0,0,0,0,0,0,0,0],"sum_hessian":[1.2406588E1,6.1344237E0,6.2721643E0,2.4447525E0,3.6896713E0,4.929723E0,1.3424412E0,2.0340643E0,2.8956587E0,1.0165353E0,1.8791234E0],"tree_param":{"num_deleted":"0","num_feature":"6","num_nodes":"11","size_leaf_vector":"1"}},{"base_weights":[2.1941992E-2,-1.4928111E-1,1.8720893E-2,-8.471572E-2,-2.719961E-2,-2.5579713E-3,-1.9303268E-2],"categories":[],"categories_nodes":[],"categories_segments":[],"categories_sizes":[],"default_left":[0,0,0,0,0,0,0],"id":69,"left_children":[1,3,-1,5,-1,-1,-1],"loss_changes":[4.3254387E-1,3.7005544E-2,0E0,3.6174487E-2,0E0,0E0,0E0],"parents":[2147483647,0,0,1,1,3,3],"right_children":[2,4,-1,6,-1,-1,-1],"split_conditions":[1E0,1E0,1.8720893E-2,5E-1,-2.719961E-2,-2.5579713E-3,-1.9303268E-2],"split_indices":[3,2,0,5,0,0,0],"split_type":[0,0,0,0,0,0,0],"sum_hessian":[1.3297973E1,6.5788007E0,6.7191715E0,5.4183364E0,1.1604642E0,4.304459E0,1.1138774E0],"tree_param":{"num_deleted":"0","num_feature":"6","num_nodes":"7","size_leaf_vector":"1"}},{"base_weights":[1.1479033E-2,-1.1494014E-1,3.848029E-2,-4.007622E-2,9.214828E-2,2.351993E-2,1.1162886E-2,-2.240879E-2,1.1730576E-1,2.2838755E-2,-1.4809859E-3],"categories":[],"categories_nodes":[],"categories_segments":[],"categories_sizes":[],"default_left":[0,0,0,0,0,0,0,0,0,0,0],"id":70,"left_children":[1,3,-1,-1,5,-1,7,-1,9,-1,-1],"loss_changes":[7.000416E-1,6.969349E-1,0E0,0E0,8.1700526E-2,0E0,1.6855471E-1,0E0,7.063328E-2,0E0,0E0],"parents":[2147483647,0,0,1,1,4,4,6,6,8,8],"right_children":[2,4,-1,-1,6,-1,8,-1,10,-1,-1],"split_conditions":[1E0,1E0,3.848029E-2,-4.007622E-2,9.390607E-2,2.351993E-2,1.4954872E-1,-2.240879E-2,2.1364617E-1,2.2838755E-2,-1.4809859E-3],"split_indices":[1,2,0,0,0,0,0,0,0,0,0],"split_type":[0,0,0,0,0,0,0,0,0,0,0],"sum_hessian":[1.2895715E1,1.015054E1,2.7451746E0,3.8716679E0,6.2788725E0,1.5813639E0,4.6975083E0,1.1150236E0,3.5824847E0,1.5503056E0,2.032179E0],"tree_param":{"num_deleted":"0","num_feature":"6","num_nodes":"11","size_leaf_vector":"1"}},{"base_weights":[3.0600324E-3,-1.5502132E-1,1.608803E-1,-2.3758221E-2,2.8094505E-3,4.054324E-4,2.428028E-2],"categories":[],"categories_nodes":[],"categories_segments":[],"categories_sizes":[],"default_left":[0,0,0,0,0,0,0],"id":71,"left_children":[1,3,5,-1,-1,-1,-1],"loss_changes":[3.5426447E-1,1.1407329E-1,9.018567E-2,0E0,0E0,0E0,0E0],"parents":[2147483647,0,0,1,1,2,2],"right_children":[2,4,6,-1,-1,-1,-1],"split_conditions":[1E0,2.872278E-1,1.4413233E-1,-2.3758221E-2,2.8094505E-3,4.054324E-4,2.428028E-2],"split_indices":[3,0,0,0,0,0,0],"split_type":[0,0,0,0,0,0,0],"sum_hessian":[1.2200208E1,6.1039224E0,6.0962853E0,4.002076E0,2.1018462E0,2.451952E0,3.6443334E0],"tree_param":{"num_deleted":"0","num_feature":"6","num_nodes":"7","size_leaf_vector":"1"}},{"base_weights":[-1.36758275E-2,-2.2271981E-2,1.7001357E-2],"categories":[],"categories_nodes":[],"categories_segments":[],"categories_sizes":[],"default_left":[0,0,0],"id":72,"left_children":[1,-1,-1],"loss_changes":[5.1248515E-1,0E0,0E0],"parents":[2147483647,0,0],"right_children":[2,-1,-1],"split_conditions":[1E0,-2.2271981E-2,1.7001357E-2],"split_indices":[3,0,0],"split_type":[0,0,0],"sum_hessian":[1.1360159E1,5.213996E0,6.1461625E0],"tree_param":{"num_deleted":"0","num_feature":"6","num_nodes":"3","size_leaf_vector":"1"}},{"base_weights":[-3.733713E-2,-1.698175E-1,3.6153655E-2,9.343044E-2,-2.6877621E-2,-1.3232182E-2,2.604044E-2],"categories":[],"categories_nodes":[],"categories_segments":[],"categories_sizes":[],"default_left":[0,0,0,0,0,0,0],"id":73,"left_children":[1,3,-1,5,-1,-1,-1],"loss_changes":[6.85124E-1,2.7365997E-1,0E0,1.6068713E-1,0E0,0E0,0E0],"parents":[2147483647,0,0,1,1,3,3],"right_children":[2,4,-1,6,-1,-1,-1],"split_conditions":[1E0,9.390607E-2,3.6153655E-2,8.422659E-2,-2.6877621E-2,-1.3232182E-2,2.604044E-2],"split_indices":[1,0,0,0,0,0,0],"split_type":[0,0,0,0,0,0,0],"sum_hessian":[1.0803448E1,8.540948E0,2.2625E0,2.3487403E0,6.1922073E0,1.0868403E0,1.2619001E0],"tree_param":{"num_deleted":"0","num_feature":"6","num_nodes":"7","size_leaf_vector":"1"}},{"base_weights":[9.468236E-3,-1.3988075E-1,1.3160658E-1,-2.6403517E-2,-1.26136495E-2,5.4108154E-2,2.9246619E-2,-4.9494137E-3,2.5525482E-3,2.2457965E-2,-5.1862583E-2,2.200682E-3,-1.2901704E-2],"categories":[],"categories_nodes":[],"categories_segments":[],"categories_sizes":[],"default_left":[0,0,0,0,0,0,0,0,0,0,0,0,0],"id":74,"left_children":[1,3,5,-1,7,9,-1,-1,-1,-1,11,-1,-1],"loss_changes":[2.4635354E-1,9.315824E-2,7.62956E-2,0E0,6.982076E-3,1.2390192E-1,0E0,0E0,0E0,0E0,2.9308712E-2,0E0,0E0],"parents":[2147483647,0,0,1,1,2,2,4,4,5,5,10,10],"right_children":[2,4,6,-1,8,10,-1,-1,-1,-1,12,-1,-1],"split_conditions":[1E0,1.995428E-1,3.86262E-1,-2.6403517E-2,2.872278E-1,9.390607E-2,2.9246619E-2,-4.9494137E-3,2.5525482E-3,2.2457965E-2,2.1364617E-1,2.200682E-3,-1.2901704E-2],"split_indices":[2,0,0,0,0,0,0,0,0,0,0,0,0],"split_type":[0,0,0,0,0,0,0,0,0,0,0,0,0],"sum_hessian":[1.1496098E1,5.106581E0,6.389517E0,2.040922E0,3.065659E0,5.2139335E0,1.1755835E0,1.4071862E0,1.6584729E0,1.5696424E0,3.644291E0,2.2269392E0,1.4173518E0],"tree_param":{"num_deleted":"0","num_feature":"6","num_nodes":"13","size_leaf_vector":"1"}},{"base_weights":[1.7066594E-4,-1.1489922E-1,3.5724323E-2,-3.871348E-2,7.843931E-2,2.1978566E-2,-1.3529363E-3,-8.590877E-2,1.688785E-2,-1.8151442E-2,1.4625932E-3,-3.528657E-4,5.608112E-4],"categories":[],"categories_nodes":[],"categories_segments":[],"categories_sizes":[],"default_left":[0,0,0,0,0,0,0,0,0,0,0,0,0],"id":75,"left_children":[1,3,-1,-1,5,-1,7,9,-1,-1,11,-1,-1],"loss_changes":[5.428755E-1,5.563567E-1,0E0,0E0,7.5580135E-2,0E0,9.022621E-2,3.516046E-2,0E0,0E0,8.547831E-5,0E0,0E0],"parents":[2147483647,0,0,1,1,4,4,6,6,7,7,10,10],"right_children":[2,4,-1,-1,6,-1,8,10,-1,-1,12,-1,-1],"split_conditions":[1E0,1E0,3.5724323E-2,-3.871348E-2,9.390607E-2,2.1978566E-2,5E-1,1.6461904E-1,1.688785E-2,-1.8151442E-2,2.4579668E-1,-3.528657E-4,5.608112E-4],"split_indices":[1,2,0,0,0,0,5,0,0,0,0,0,0],"split_type":[0,0,0,0,0,0,0,0,0,0,0,0,0],"sum_hessian":[1.1213419E1,8.993424E0,2.2199943E0,3.318439E0,5.674986E0,1.4146171E0,4.260369E0,3.1774402E0,1.0829284E0,1.0027174E0,2.174723E0,1.0542256E0,1.1204972E0],"tree_param":{"num_deleted":"0","num_feature":"6","num_nodes":"13","size_leaf_vector":"1"}},{"base_weights":[-1.6431744E-3,-1.2177585E-1,3.551758E-2,-3.926184E-2,1.17066E-1,1.8429417E-2,3.5997894E-2,-9.148063E-3,1.14255585E-2],"categories":[],"categories_nodes":[],"categories_segments":[],"categories_sizes":[],"default_left":[0,0,0,0,0,0,0,0,0],"id":76,"left_children":[1,3,-1,-1,5,-1,7,-1,-1],"loss_changes":[5.281477E-1,6.4157915E-1,0E0,0E0,2.4229988E-2,0E0,4.8461705E-2,0E0,0E0],"parents":[2147483647,0,0,1,1,4,4,6,6],"right_children":[2,4,-1,-1,6,-1,8,-1,-1],"split_conditions":[1E0,1E0,3.551758E-2,-3.926184E-2,9.390607E-2,1.8429417E-2,1.8712619E-1,-9.148063E-3,1.14255585E-2],"split_indices":[1,3,0,0,0,0,0,0,0],"split_type":[0,0,0,0,0,0,0,0,0],"sum_hessian":[1.0311999E1,8.207458E0,2.1045425E0,3.5443654E0,4.6630917E0,1.8530608E0,2.810031E0,1.0046048E0,1.8054261E0],"tree_param":{"num_deleted":"0","num_feature":"6","num_nodes":"9","size_leaf_vector":"1"}},{"base_weights":[-1.634054E-2,-1.4179894E-1,3.507983E-2,-3.784272E-2,4.551197E-2,2.0824034E-2,-4.8006956E-2,4.3613484E-4,-9.548727E-3],"categories":[],"categories_nodes":[],"categories_segments":[],"categories_sizes":[],"default_left":[0,0,0,0,0,0,0,0,0],"id":77,"left_children":[1,3,-1,-1,5,-1,7,-1,-1],"loss_changes":[5.533114E-1,4.099446E-1,0E0,0E0,9.884433E-2,0E0,1.1655747E-2,0E0,0E0],"parents":[2147483647,0,0,1,1,4,4,6,6],"right_children":[2,4,-1,-1,6,-1,8,-1,-1],"split_conditions":[1E0,1E0,3.507983E-2,-3.784272E-2,9.390607E-2,2.0824034E-2,2.1364617E-1,4.3613484E-4,-9.548727E-3],"split_indices":[1,2,0,0,0,0,0,0,0],"split_type":[0,0,0,0,0,0,0,0,0],"sum_hessian":[9.932729E0,7.8604383E0,2.0722904E0,3.0222015E0,4.838237E0,1.3180443E0,3.5201924E0,2.1057758E0,1.4144166E0],"tree_param":{"num_deleted":"0","num_feature":"6","num_nodes":"9","size_leaf_vector":"1"}},{"base_weights":[1.7272403E-2,-9.354716E-2,3.4071546E-2,-3.680336E-2,9.802281E-2,2.2003716E-2,5.966098E-3,3.9376263E-3,-4.3237293E-3],"categories":[],"categories_nodes":[],"categories_segments":[],"categories_sizes":[],"default_left":[0,0,0,0,0,0,0,0,0],"id":78,"left_children":[1,3,-1,-1,5,-1,7,-1,-1],"loss_changes":[4.0507638E-1,4.8511103E-1,0E0,0E0,6.4048275E-2,0E0,8.844526E-3,0E0,0E0],"parents":[2147483647,0,0,1,1,4,4,6,6],"right_children":[2,4,-1,-1,6,-1,8,-1,-1],"split_conditions":[1E0,1E0,3.4071546E-2,-3.680336E-2,9.390607E-2,2.2003716E-2,2.1364617E-1,3.9376263E-3,-4.3237293E-3],"split_indices":[1,2,0,0,0,0,0,0,0],"split_type":[0,0,0,0,0,0,0,0,0],"sum_hessian":[9.411934E0,7.539494E0,1.8724395E0,2.7204366E0,4.8190575E0,1.4744925E0,3.344565E0,2.1109254E0,1.2336394E0],"tree_param":{"num_deleted":"0","num_feature":"6","num_nodes":"9","size_leaf_vector":"1"}},{"base_weights":[6.2068435E-3,-1.7175134E-1,1.6084634E-1,-2.4841554E-2,-1.3719664E-4,2.914612E-3,2.243561E-2],"categories":[],"categories_nodes":[],"categories_segments":[],"categories_sizes":[],"default_left":[0,0,0,0,0,0,0],"id":79,"left_children":[1,3,5,-1,-1,-1,-1],"loss_changes":[3.0934253E-1,6.814672E-2,4.3594345E-2,0E0,0E0,0E0,0E0],"parents":[2147483647,0,0,1,1,2,2],"right_children":[2,4,6,-1,-1,-1,-1],"split_conditions":[1E0,2.6025778E-1,1.4413233E-1,-2.4841554E-2,-1.3719664E-4,2.914612E-3,2.243561E-2],"split_indices":[3,0,0,0,0,0,0],"split_type":[0,0,0,0,0,0,0],"sum_hessian":[9.237045E0,4.2432656E0,4.99378E0,2.610587E0,1.6326786E0,2.0993273E0,2.894453E0],"tree_param":{"num_deleted":"0","num_feature":"6","num_nodes":"7","size_leaf_vector":"1"}},{"base_weights":[-6.1613633E-3,-1.4597952E-1,9.8731875E-2,-2.326169E-2,2.3930313E-3,1.949902E-2,3.7371255E-2,-4.479354E-2,1.8827582E-2,1.148891E-3,-1.0367774E-2],"categories":[],"categories_nodes":[],"categories_segments":[],"categories_sizes":[],"default_left":[0,0,0,0,0,0,0,0,0,0,0],"id":80,"left_children":[1,3,5,-1,-1,-1,7,9,-1,-1,-1],"loss_changes":[1.6342261E-1,7.561503E-2,3.052432E-2,0E0,0E0,0E0,7.224676E-2,1.4911966E-2,0E0,0E0,0E0],"parents":[2147483647,0,0,1,1,2,2,6,6,7,7],"right_children":[2,4,6,-1,-1,-1,8,10,-1,-1,-1],"split_conditions":[1E0,2.6025778E-1,9.390607E-2,-2.326169E-2,2.3930313E-3,1.949902E-2,3.0317205E-1,2.1364617E-1,1.8827582E-2,1.148891E-3,-1.0367774E-2],"split_indices":[2,0,0,0,0,0,0,0,0,0,0],"split_type":[0,0,0,0,0,0,0,0,0,0,0],"sum_hessian":[9.1602335E0,3.758551E0,5.401683E0,2.244841E0,1.5137099E0,1.2550585E0,4.146624E0,3.1400762E0,1.0065482E0,2.0170436E0,1.1230323E0],"tree_param":{"num_deleted":"0","num_feature":"6","num_nodes":"11","size_leaf_vector":"1"}},{"base_weights":[-1.0080799E-2,-1.12327054E-1,3.2016866E-2,-3.6179215E-2,5.8098007E-3],"categories":[],"categories_nodes":[],"categories_segments":[],"categories_sizes":[],"default_left":[0,0,0,0,0],"id":81,"left_children":[1,3,-1,-1,-1],"loss_changes":[3.7588635E-1,3.793017E-1,0E0,0E0,0E0],"parents":[2147483647,0,0,1,1],"right_children":[2,4,-1,-1,-1],"split_conditions":[1E0,1E0,3.2016866E-2,-3.6179215E-2,5.8098007E-3],"split_indices":[1,2,0,0,0],"split_type":[0,0,0,0,0],"sum_hessian":[9.066783E0,7.427178E0,1.6396053E0,2.5587888E0,4.868389E0],"tree_param":{"num_deleted":"0","num_feature":"6","num_nodes":"5","size_leaf_vector":"1"}},{"base_weights":[1.5678557E-2,-1.5476152E-1,1.5140107E-1,-2.1938613E-2,-5.043125E-4,3.0024424E-3,2.1409404E-2],"categories":[],"categories_nodes":[],"categories_segments":[],"categories_sizes":[],"default_left":[0,0,0,0,0,0,0],"id":82,"left_children":[1,3,5,-1,-1,-1,-1],"loss_changes":[2.5681219E-1,4.6951026E-2,4.0156573E-2,0E0,0E0,0E0,0E0],"parents":[2147483647,0,0,1,1,2,2],"right_children":[2,4,6,-1,-1,-1,-1],"split_conditions":[1E0,2.6025778E-1,1.4413233E-1,-2.1938613E-2,-5.043125E-4,3.0024424E-3,2.1409404E-2],"split_indices":[3,0,0,0,0,0,0],"split_type":[0,0,0,0,0,0,0],"sum_hessian":[9.088859E0,3.966924E0,5.121935E0,2.4458642E0,1.5210599E0,2.248207E0,2.8737276E0],"tree_param":{"num_deleted":"0","num_feature":"6","num_nodes":"7","size_leaf_vector":"1"}},{"base_weights":[-2.901341E-3,-9.302342E-2,3.0290976E-2,5.7827863E-3,-1.4419985E-1,-1.9101733E-2,9.976865E-4],"categories":[],"categories_nodes":[],"categories_segments":[],"categories_sizes":[],"default_left":[0,0,0,0,0,0,0],"id":83,"left_children":[1,3,-1,-1,5,-1,-1],"loss_changes":[2.8842E-1,7.054956E-2,0E0,0E0,